{"learner":{"attributes":{"scikit_learn":"{\"_estimator_type\": \"classifier\"}"},"feature_names":[],"feature_types":[],"gradient_booster":{"model":{"gbtree_model_param":{"num_parallel_tree":"1","num_trees":"200"},"iteration_indptr":[0,1,2,3,4,5,6,7,8,9,10,11,12,13,14,15,16,17,18,19,20,21,22,23,24,25,26,27,28,29,30,31,32,33,34,35,36,37,38,39,40,41,42,43,44,45,46,47,48,49,50,51,52,53,54,55,56,57,58,59,60,61,62,63,64,65,66,67,68,69,70,71,72,73,74,75,76,77,78,79,80,81,82,83,84,85,86,87,88,89,90,91,92,93,94,95,96,97,98,99,100,101,102,103,104,105,106,107,108,109,110,111,112,113,114,115,116,117,118,119,120,121,122,123,124,125,126,127,128,129,130,131,132,133,134,135,136,137,138,139,140,141,142,143,144,145,146,147,148,149,150,151,152,153,154,155,156,157,158,159,160,161,162,163,164,165,166,167,168,169,170,171,172,173,174,175,176,177,178,179,180,181,182,183,184,185,186,187,188,189,190,191,192,193,194,195,196,197,198,199,200],"tree_info":[0,0,0,0,0,0,0,0,0,0,0,0,0,0,0,0,0,0,0,0,0,0,0,0,0,0,0,0,0,0,0,0,0,0,0,0,0,0,0,0,0,0,0,0,0,0,0,0,0,0,0,0,0,0,0,0,0,0,0,0,0,0,0,0,0,0,0,0,0,0,0,0,0,0,0,0,0,0,0,0,0,0,0,0,0,0,0,0,0,0,0,0,0,0,0,0,0,0,0,0,0,0,0,0,0,0,0,0,0,0,0,0,0,0,0,0,0,0,0,0,0,0,0,0,0,0,0,0,0,0,0,0,0,0,0,0,0,0,0,0,0,0,0,0,0,0,0,0,0,0,0,0,0,0,0,0,0,0,0,0,0,0,0,0,0,0,0,0,0,0,0,0,0,0,0,0,0,0,0,0,0,0,0,0,0,0,0,0,0,0,0,0,0,0,0,0,0,0,0,0],"trees":[{"base_weights":[3.0379152E-2,-4.690922E-1,5.328961E0,3.7620156E0,-9.873144E-1,6.4613767E0,4.3894652E-1,-3.2199554E-2,7.1082687E0,3.624642E-1,-1.0257654E0,1.3881573E-1,6.512249E-1,-3.7519235E-2,9.217678E-2,1.3308649E-1,-5.5331293E-2,7.3524183E-1,5.2353542E-2,-5.3425223E-2,1.3411672E-1,-3.271719E-2,-9.421412E-2],"categories":[],"categories_nodes":[],"categories_segments":[],"categories_sizes":[],"default_left":[0,0,0,0,0,1,1,0,0,0,0,0,0,0,0,0,0,0,0,0,0,0,0],"id":0,"left_children":[1,3,5,7,9,11,13,15,17,19,21,-1,-1,-1,-1,-1,-1,-1,-1,-1,-1,-1,-1],"loss_changes":[3.5376135E2,2.716844E2,6.0926544E1,1.7217755E2,6.063698E0,2.4179077E1,2.0487719E0,7.372191E0,4.511557E1,4.956396E0,1.1101227E0,0E0,0E0,0E0,0E0,0E0,0E0,0E0,0E0,0E0,0E0,0E0,0E0],"parents":[2147483647,0,0,1,1,2,2,3,3,4,4,5,5,6,6,7,7,8,8,9,9,10,10],"right_children":[2,4,6,8,10,12,14,16,18,20,22,-1,-1,-1,-1,-1,-1,-1,-1,-1,-1,-1,-1],"split_conditions":[5.347589E3,1.3217708E2,3E0,2.8811123E0,1.4329228E2,1.2627835E2,1.1536608E2,2E0,3E0,1.5369728E2,1E0,1.3881573E-1,6.512249E-1,-3.7519235E-2,9.217678E-2,1.3308649E-1,-5.5331293E-2,7.3524183E-1,5.2353542E-2,-5.3425223E-2,1.3411672E-1,-3.271719E-2,-9.421412E-2],"split_indices":[5,0,4,10,0,1,1,4,4,1,4,0,0,0,0,0,0,0,0,0,0,0,0],"split_type":[0,0,0,0,0,0,0,0,0,0,0,0,0,0,0,0,0,0,0,0,0,0,0],"sum_hessian":[1.3172734E2,1.21212685E2,1.0514658E1,1.2543098E1,1.08669586E2,8.276636E0,2.2380214E0,6.342222E0,6.2008758E0,2.7765174E0,1.0589307E2,1.532772E0,6.7438645E0,1.0257255E0,1.2122958E0,1.3368733E0,5.005349E0,5.117214E0,1.0836619E0,1.758925E0,1.0175924E0,3.8262625E0,1.020668E2],"tree_param":{"num_deleted":"0","num_feature":"11","num_nodes":"23","size_leaf_vector":"1"}},{"base_weights":[-1.2828783E-3,2.0392337E0,-8.184386E-1,3.97874E0,6.687306E-1,1.0956649E0,-9.465108E-1,3.94709E-1,4.9085655E0,-8.4626263E-1,3.411401E-1,-1.7902069E-1,1.9392704E0,1.7229047E-1,-9.482964E-2,-3.27303E-2,7.793474E-2,1.05998136E-1,4.6807876E-1,-3.9693628E-2,-8.1755824E-2,1.4873197E-2,-3.4821935E-2,3.2603882E-2,2.1162634E-1,-6.0430173E-2,1.6258791E-1],"categories":[],"categories_nodes":[],"categories_segments":[],"categories_sizes":[],"default_left":[0,0,1,0,0,1,0,0,0,0,0,0,0,0,0,0,0,0,0,0,0,0,0,0,0,0,0],"id":1,"left_children":[1,3,5,7,9,11,13,15,17,19,-1,21,23,25,-1,-1,-1,-1,-1,-1,-1,-1,-1,-1,-1,-1,-1],"loss_changes":[2.2480609E2,9.981683E1,2.4636734E1,5.058557E1,1.1573001E2,7.3377357E0,1.1062958E1,1.8637906E0,7.426605E0,2.3263931E-2,0E0,3.147594E-1,1.7455778E0,1.3337188E1,0E0,0E0,0E0,0E0,0E0,0E0,0E0,0E0,0E0,0E0,0E0,0E0,0E0],"parents":[2147483647,0,0,1,1,2,2,3,3,4,4,5,5,6,6,7,7,8,8,9,9,11,11,12,12,13,13],"right_children":[2,4,6,8,10,12,14,16,18,20,-1,22,24,26,-1,-1,-1,-1,-1,-1,-1,-1,-1,-1,-1,-1,-1],"split_conditions":[2E0,1.7125693E2,2.1655832E1,1.4506294E2,5.347589E3,2.6116815E0,1.3382341E2,1.967997E2,8.051765E1,1E0,3.411401E-1,4.989195E2,1.7714879E2,2.9501429E0,-9.482964E-2,-3.27303E-2,7.793474E-2,1.05998136E-1,4.6807876E-1,-3.9693628E-2,-8.1755824E-2,1.4873197E-2,-3.4821935E-2,3.2603882E-2,2.1162634E-1,-6.0430173E-2,1.6258791E-1],"split_indices":[4,0,5,1,5,10,0,3,0,4,0,2,1,10,0,0,0,0,0,0,0,0,0,0,0,0,0],"split_type":[0,0,0,0,0,0,0,0,0,0,0,0,0,0,0,0,0,0,0,0,0,0,0,0,0,0,0],"sum_hessian":[1.328218E2,3.7552944E1,9.5268845E1,1.476074E1,2.2792206E1,5.5008464E0,8.9768E1,3.3340552E0,1.1426685E1,1.5835851E1,6.9563546E0,2.5044382E0,2.996408E0,7.792852E0,8.197514E1,1.3652099E0,1.9688454E0,1.1956388E0,1.0231046E1,3.182022E0,1.2653829E1,1.020122E0,1.4843161E0,1.010145E0,1.9862632E0,5.527973E0,2.2648785E0],"tree_param":{"num_deleted":"0","num_feature":"11","num_nodes":"27","size_leaf_vector":"1"}},{"base_weights":[-3.5341613E-2,2.1272962E0,-6.3624156E-1,2.806199E0,6.688704E-1,1.3881518E0,-1.0143881E0,1.1872754E0,2.789227E-1,-2.5885692E-1,1.6590494E0,-4.6423554E-1,2.7449565E0,-2.0465637E-2,-9.202968E-2,-7.992241E-3,1.5112224E-1,-5.2289627E-2,1.9823503E-2,1.9333945E-1,1.9254226E-2,-6.6890284E-2,3.6415037E-2,-2.3247248E-2,2.8708887E-1],"categories":[],"categories_nodes":[],"categories_segments":[],"categories_sizes":[],"default_left":[1,0,0,0,1,0,0,0,0,1,0,0,0,0,0,0,0,0,0,0,0,0,0,0,0],"id":2,"left_children":[1,3,5,7,9,11,13,15,-1,17,19,21,23,-1,-1,-1,-1,-1,-1,-1,-1,-1,-1,-1,-1],"loss_changes":[1.7212062E2,2.6641891E1,8.07186E1,5.4930267E0,1.004003E1,4.3319458E1,3.320694E-1,3.0265956E0,0E0,1.0951388E0,3.2132235E0,2.2224832E0,1.3919846E1,0E0,0E0,0E0,0E0,0E0,0E0,0E0,0E0,0E0,0E0,0E0,0E0],"parents":[2147483647,0,0,1,1,2,2,3,3,4,4,5,5,6,6,7,7,9,9,10,10,11,11,12,12],"right_children":[2,4,6,8,10,12,14,16,-1,18,20,22,24,-1,-1,-1,-1,-1,-1,-1,-1,-1,-1,-1,-1],"split_conditions":[3.5440605E1,2E0,1.3797333E2,1.5560141E2,2.8306875E0,2.8906324E0,1.4329228E2,1.8976091E2,2.789227E-1,1.4979982E2,3.7464307E2,1.7088655E2,1.3391042E2,-2.0465637E-2,-9.202968E-2,-7.992241E-3,1.5112224E-1,-5.2289627E-2,1.9823503E-2,1.9333945E-1,1.9254226E-2,-6.6890284E-2,3.6415037E-2,-2.3247248E-2,2.8708887E-1],"split_indices":[5,4,0,1,10,10,0,3,0,1,0,1,1,0,0,0,0,0,0,0,0,0,0,0,0],"split_type":[0,0,0,0,0,0,0,0,0,0,0,0,0,0,0,0,0,0,0,0,0,0,0,0,0],"sum_hessian":[1.3040695E2,2.7803177E1,1.0260377E2,1.8341166E1,9.462011E0,1.5728876E1,8.687489E1,3.584517E0,1.4756648E1,5.2663713E0,4.1956396E0,6.928094E0,8.800782E0,1.1881987E0,8.56867E1,1.2252353E0,2.3592818E0,3.0219216E0,2.2444499E0,2.7710946E0,1.4245453E0,5.3536143E0,1.5744797E0,1.189688E0,7.6110945E0],"tree_param":{"num_deleted":"0","num_feature":"11","num_nodes":"25","size_leaf_vector":"1"}},{"base_weights":[4.6502184E-2,1.5085427E0,-7.3778456E-1,2.5957232E0,5.552592E-1,-9.018074E-1,1.2968779E0,2.7365541E-2,2.798686E0,-7.809422E-1,2.3840928E0,2.0798905E-1,-9.345042E-2,-1.7448358E-2,1.8296503E0,-1.2585251E-2,2.6872548E-1,-7.635275E-2,-1.4916669E-2,6.2394235E-2,2.241688E-1,-5.9473567E-2,1.3802448E-1,1.8966119E-1,3.1289846E-2],"categories":[],"categories_nodes":[],"categories_segments":[],"categories_sizes":[],"default_left":[0,1,0,0,0,0,1,0,0,0,0,0,0,0,0,0,0,0,0,0,0,0,0,0,0],"id":3,"left_children":[1,3,5,7,9,11,13,-1,15,17,19,21,-1,-1,23,-1,-1,-1,-1,-1,-1,-1,-1,-1,-1],"loss_changes":[1.5101599E2,4.62035E1,2.9789783E1,9.012131E0,6.4826935E1,1.233017E1,5.76165E0,0E0,1.1063675E1,5.0817585E-1,2.7971268E-1,1.2059908E1,0E0,0E0,1.3708038E0,0E0,0E0,0E0,0E0,0E0,0E0,0E0,0E0,0E0,0E0],"parents":[2147483647,0,0,1,1,2,2,3,3,4,4,5,5,6,6,8,8,9,9,10,10,11,11,14,14],"right_children":[2,4,6,8,10,12,14,-1,16,18,20,22,-1,-1,24,-1,-1,-1,-1,-1,-1,-1,-1,-1,-1],"split_conditions":[2E0,1.580029E2,5.347589E3,1.2314342E2,3.1376953E0,1.3382341E2,1.3854846E2,2.7365541E-2,5.9386612E1,3.0817432E0,1.4506294E2,1.669541E2,-9.345042E-2,-1.7448358E-2,4.5597287E2,-1.2585251E-2,2.6872548E-1,-7.635275E-2,-1.4916669E-2,6.2394235E-2,2.241688E-1,-5.9473567E-2,1.3802448E-1,1.8966119E-1,3.1289846E-2],"split_indices":[4,0,5,1,6,0,1,0,0,10,1,1,0,0,0,0,0,0,0,0,0,0,0,0,0],"split_type":[0,0,0,0,0,0,0,0,0,0,0,0,0,0,0,0,0,0,0,0,0,0,0,0,0],"sum_hessian":[1.2973024E2,4.4971832E1,8.475841E1,2.0205437E1,2.4766397E1,7.895064E1,5.8077703E0,1.8471617E0,1.8358274E1,1.46417055E1,1.0124691E1,8.591419E0,7.035922E1,1.696608E0,4.111162E0,1.114357E0,1.7243917E1,1.2853998E1,1.7877079E0,1.0458764E0,9.0788145E0,5.492891E0,3.0985289E0,3.1069946E0,1.0041677E0],"tree_param":{"num_deleted":"0","num_feature":"11","num_nodes":"25","size_leaf_vector":"1"}},{"base_weights":[-4.221756E-2,1.1464231E0,-7.473169E-1,1.868967E0,2.8646734E-1,8.086665E-1,-9.172403E-1,2.4697939E-1,2.144217E0,-7.7473454E-2,1.638318E0,-4.7481336E-2,1.5749921E-1,3.2267407E-2,-9.257078E-2,-3.4605578E-2,1.09983414E-1,1.992607E-2,2.0548178E-1,1.8329877E-1,6.1044134E-2,-4.9552612E-2,3.2242548E-2,-5.5932976E-2,1.0356386E-1],"categories":[],"categories_nodes":[],"categories_segments":[],"categories_sizes":[],"default_left":[0,0,1,0,0,1,0,0,0,0,0,1,0,0,0,0,0,0,0,0,0,0,0,0,0],"id":4,"left_children":[1,3,5,7,9,11,13,15,17,-1,19,21,-1,23,-1,-1,-1,-1,-1,-1,-1,-1,-1,-1,-1],"loss_changes":[1.0726445E2,2.908242E1,2.1971615E1,1.0953918E1,3.6996582E1,6.8824797E0,7.73452E0,3.4635038E0,5.3334045E0,0E0,2.7784863E0,1.297873E0,0E0,7.014474E0,0E0,0E0,0E0,0E0,0E0,0E0,0E0,0E0,0E0,0E0,0E0],"parents":[2147483647,0,0,1,1,2,2,3,3,4,4,5,5,6,6,7,7,8,8,10,10,11,11,13,13],"right_children":[2,4,6,8,10,12,14,16,18,-1,20,22,-1,24,-1,-1,-1,-1,-1,-1,-1,-1,-1,-1,-1],"split_conditions":[2E0,2.0079553E2,2.5898909E1,2.6401045E0,3.1376953E0,2.9464595E0,1.3217708E2,5.392255E2,6.88107E1,-7.7473454E-2,3.2293823E2,1.2520979E2,1.5749921E-1,2.984378E0,-9.257078E-2,-3.4605578E-2,1.09983414E-1,1.992607E-2,2.0548178E-1,1.8329877E-1,6.1044134E-2,-4.9552612E-2,3.2242548E-2,-5.5932976E-2,1.0356386E-1],"split_indices":[4,0,5,10,6,10,0,5,0,0,2,1,0,10,0,0,0,0,0,0,0,0,0,0,0],"split_type":[0,0,0,0,0,0,0,0,0,0,0,0,0,0,0,0,0,0,0,0,0,0,0,0,0],"sum_hessian":[1.25961555E2,4.666643E1,7.929513E1,2.4721682E1,2.194475E1,7.4368763E0,7.185825E1,3.8618636E0,2.085982E1,1.2067002E1,9.877747E0,4.3919215E0,3.0449548E0,7.6153483E0,6.4242905E1,2.711469E0,1.1503946E0,1.5802426E0,1.9279575E1,6.1886196E0,3.6891272E0,1.8013058E0,2.5906157E0,5.0865345E0,2.5288136E0],"tree_param":{"num_deleted":"0","num_feature":"11","num_nodes":"25","size_leaf_vector":"1"}},{"base_weights":[1.901089E-2,1.3905466E0,-5.6099576E-1,5.424535E-1,1.7508056E0,1.0357075E0,-9.8508114E-1,1.1940625E0,-4.8655993E-1,2.0459075E0,1.1154685E0,-1.4859349E-1,1.8144295E0,-2.79597E-1,-9.111892E-2,1.4593309E-1,-2.5300868E-2,-5.914851E-2,1.2991278E-2,3.7161395E-2,1.9289969E-1,-5.225549E-2,1.3110226E-1,6.702989E-2,-6.0778655E-2,6.460945E-4,1.7942369E-1,-5.377931E-2,2.3798762E-2],"categories":[],"categories_nodes":[],"categories_segments":[],"categories_sizes":[],"default_left":[1,1,0,0,0,0,0,1,0,0,0,0,0,1,0,0,0,0,0,0,0,0,0,0,0,0,0,0,0],"id":5,"left_children":[1,3,5,7,9,11,13,15,17,19,21,23,25,27,-1,-1,-1,-1,-1,-1,-1,-1,-1,-1,-1,-1,-1,-1,-1],"loss_changes":[9.965815E1,1.0424957E1,6.0654327E1,8.994865E0,2.532692E0,1.776406E1,1.0695343E0,5.482733E0,6.9515944E-1,1.7140427E0,6.832203E0,4.478919E0,3.7158928E0,8.4952116E-1,0E0,0E0,0E0,0E0,0E0,0E0,0E0,0E0,0E0,0E0,0E0,0E0,0E0,0E0,0E0],"parents":[2147483647,0,0,1,1,2,2,3,3,4,4,5,5,6,6,7,7,8,8,9,9,10,10,11,11,12,12,13,13],"right_children":[2,4,6,8,10,12,14,16,18,20,22,24,26,28,-1,-1,-1,-1,-1,-1,-1,-1,-1,-1,-1,-1,-1,-1,-1],"split_conditions":[3.5440605E1,2.8306875E0,1.358626E2,4.515198E2,2.3455664E2,1.7088655E2,1E0,2.1655832E1,2.8878348E2,1.8479811E2,3.4535324E1,2E0,2.6821933E0,2.933579E0,-9.111892E-2,1.4593309E-1,-2.5300868E-2,-5.914851E-2,1.2991278E-2,3.7161395E-2,1.9289969E-1,-5.225549E-2,1.3110226E-1,6.702989E-2,-6.0778655E-2,6.460945E-4,1.7942369E-1,-5.377931E-2,2.3798762E-2],"split_indices":[5,10,0,2,0,1,4,5,3,2,5,4,10,10,0,0,0,0,0,0,0,0,0,0,0,0,0,0,0],"split_type":[0,0,0,0,0,0,0,0,0,0,0,0,0,0,0,0,0,0,0,0,0,0,0,0,0,0,0,0,0],"sum_hessian":[1.2329677E2,3.622899E1,8.706778E1,1.1548401E1,2.468059E1,1.7969494E1,6.909828E1,6.972661E0,4.57574E0,1.5336766E1,9.343823E0,7.4494133E0,1.0520081E1,2.9977732E0,6.610051E1,5.3293705E0,1.6432909E0,3.568784E0,1.0069557E0,1.1583691E0,1.4178397E1,1.4474673E0,7.8963556E0,2.6095016E0,4.839912E0,1.04268E0,9.4774E0,1.8299196E0,1.1678536E0],"tree_param":{"num_deleted":"0","num_feature":"11","num_nodes":"29","size_leaf_vector":"1"}},{"base_weights":[1.936436E-3,9.777242E-1,-6.9779456E-1,1.4193124E0,2.5055045E-1,5.8062214E-1,-8.962995E-1,-1.331546E-1,1.6220402E0,1.1840615E0,-7.227513E-1,-4.200374E-1,1.0478116E0,6.0626302E-2,-9.1012076E-2,-4.9413957E-2,6.1159432E-2,-1.6507694E-2,1.528174E-1,1.153548E-2,1.2921408E-1,-5.4542692E-3,-7.144229E-2,-4.8529617E-2,-3.2411588E-3,1.4137861E-1,3.2352883E-2,-6.503345E-2,8.529642E-2],"categories":[],"categories_nodes":[],"categories_segments":[],"categories_sizes":[],"default_left":[0,0,1,0,1,1,0,0,0,0,0,1,0,0,0,0,0,0,0,0,0,0,0,0,0,0,0,0,0],"id":6,"left_children":[1,3,5,7,9,11,13,15,17,19,21,23,25,27,-1,-1,-1,-1,-1,-1,-1,-1,-1,-1,-1,-1,-1,-1,-1],"loss_changes":[8.422924E1,1.6187103E1,1.8752472E1,1.0236382E1,1.9644327E1,5.238078E0,6.9449005E0,1.9283876E0,4.182411E0,2.7213717E0,4.573946E-1,1.6275662E-1,2.0573764E0,6.003236E0,0E0,0E0,0E0,0E0,0E0,0E0,0E0,0E0,0E0,0E0,0E0,0E0,0E0,0E0,0E0],"parents":[2147483647,0,0,1,1,2,2,3,3,4,4,5,5,6,6,7,7,8,8,9,9,10,10,11,11,12,12,13,13],"right_children":[2,4,6,8,10,12,14,16,18,20,22,24,26,28,-1,-1,-1,-1,-1,-1,-1,-1,-1,-1,-1,-1,-1,-1,-1],"split_conditions":[2E0,2.2512209E2,3.0297235E1,1.2314342E2,2.2556707E1,1.4777782E2,1.27429886E2,2.1893184E2,5.9386612E1,7.200928E-1,2.2022614E2,1.0642935E2,2.4745831E2,2.92563E0,-9.1012076E-2,-4.9413957E-2,6.1159432E-2,-1.6507694E-2,1.528174E-1,1.153548E-2,1.2921408E-1,-5.4542692E-3,-7.144229E-2,-4.8529617E-2,-3.2411588E-3,1.4137861E-1,3.2352883E-2,-6.503345E-2,8.529642E-2],"split_indices":[4,0,5,1,5,1,0,5,0,7,2,1,0,10,0,0,0,0,0,0,0,0,0,0,0,0,0,0,0],"split_type":[0,0,0,0,0,0,0,0,0,0,0,0,0,0,0,0,0,0,0,0,0,0,0,0,0,0,0,0,0],"sum_hessian":[1.2136136E2,5.051708E1,7.084428E1,3.0838236E1,1.967884E1,9.263063E0,6.1581215E1,3.6015053E0,2.723673E1,9.9342165E0,9.744624E0,2.9803872E0,6.2826767E0,6.654546E0,5.492667E1,2.596968E0,1.0045373E0,1.0421118E0,2.619462E1,2.202436E0,7.73178E0,1.1238794E0,8.620745E0,1.9660935E0,1.0142936E0,2.8413887E0,3.441288E0,3.6327171E0,3.0218284E0],"tree_param":{"num_deleted":"0","num_feature":"11","num_nodes":"29","size_leaf_vector":"1"}},{"base_weights":[1.6856465E-2,1.0367131E0,-5.908862E-1,2.6313463E-1,1.3204626E0,6.8641937E-1,-9.725342E-1,6.028535E-1,-4.5906803E-1,1.6791667E0,8.091938E-1,-5.401594E-1,1.184378E0,-2.0804899E-2,-8.909864E-2,6.5593813E-3,1.1444554E-1,5.8579207E-3,-5.7013538E-2,3.0550592E-2,1.5768991E-1,-5.312818E-2,1.06731184E-1,4.488138E-3,-6.597586E-2,1.2500174E-1,-2.2666676E-2],"categories":[],"categories_nodes":[],"categories_segments":[],"categories_sizes":[],"default_left":[1,1,0,0,0,0,0,0,0,0,0,0,0,0,0,0,0,0,0,0,0,0,0,0,0,0,0],"id":7,"left_children":[1,3,5,7,9,11,13,15,17,19,21,23,25,-1,-1,-1,-1,-1,-1,-1,-1,-1,-1,-1,-1,-1,-1],"loss_changes":[7.453116E1,9.507004E0,3.740682E1,3.5391073E0,4.6194267E0,1.1587669E1,5.272255E-1,3.2656615E0,4.8202157E-1,1.1864357E0,8.803539E0,7.038145E-1,4.1867676E0,0E0,0E0,0E0,0E0,0E0,0E0,0E0,0E0,0E0,0E0,0E0,0E0,0E0,0E0],"parents":[2147483647,0,0,1,1,2,2,3,3,4,4,5,5,6,6,7,7,8,8,9,9,10,10,11,11,12,12],"right_children":[2,4,6,8,10,12,14,16,18,20,22,24,26,-1,-1,-1,-1,-1,-1,-1,-1,-1,-1,-1,-1,-1,-1],"split_conditions":[4.2015915E1,1.6217882E2,1.358626E2,4.5441772E2,2.2855023E2,2.7432945E0,1.4530988E2,2.1483852E2,1.8829619E2,8.524731E1,4.127097E1,2E0,3E0,-2.0804899E-2,-8.909864E-2,6.5593813E-3,1.1444554E-1,5.8579207E-3,-5.7013538E-2,3.0550592E-2,1.5768991E-1,-5.312818E-2,1.06731184E-1,4.488138E-3,-6.597586E-2,1.2500174E-1,-2.2666676E-2],"split_indices":[5,1,0,2,0,10,0,3,0,0,5,4,4,0,0,0,0,0,0,0,0,0,0,0,0,0,0],"split_type":[0,0,0,0,0,0,0,0,0,0,0,0,0,0,0,0,0,0,0,0,0,0,0,0,0,0,0],"sum_hessian":[1.1826E2,4.3894512E1,7.436549E1,1.229697E1,3.1597542E1,1.6924324E1,5.7441166E1,8.475442E0,3.8215287E0,1.7226904E1,1.4370639E1,4.862413E0,1.2061913E1,1.6486182E0,5.579255E1,5.3470635E0,3.1283782E0,1.1106408E0,2.710888E0,1.1814476E0,1.6045456E1,2.9275348E0,1.1443104E1,1.3807365E0,3.4816763E0,1.0587167E1,1.4747456E0],"tree_param":{"num_deleted":"0","num_feature":"11","num_nodes":"27","size_leaf_vector":"1"}},{"base_weights":[-3.6084976E-2,7.70638E-1,-6.722623E-1,1.2458087E0,2.0472075E-1,2.7955675E-1,-9.003169E-1,1.5946932E-2,1.3759865E0,-7.334187E-1,9.849977E-1,-2.2820401E-1,9.6174043E-1,-1.4128426E-1,-8.999017E-2,4.0503446E-2,-3.70891E-2,2.3648335E-2,1.288801E-1,-7.713628E-2,-9.6371025E-3,9.873593E-2,-1.2327103E-2,-5.7466917E-2,1.2133696E-2,-2.7183752E-4,1.0702959E-1,-4.7715716E-2,7.933616E-2],"categories":[],"categories_nodes":[],"categories_segments":[],"categories_sizes":[],"default_left":[0,0,1,0,0,1,0,1,0,1,0,0,0,0,0,0,0,0,0,0,0,0,0,0,0,0,0,0,0],"id":8,"left_children":[1,3,5,7,9,11,13,15,17,19,21,23,25,27,-1,-1,-1,-1,-1,-1,-1,-1,-1,-1,-1,-1,-1,-1,-1],"loss_changes":[5.844107E1,1.3251377E1,1.4064758E1,4.31773E0,1.83793E1,4.74429E0,3.7565498E0,8.555357E-1,1.1514549E0,8.008728E-1,1.8596916E0,1.3219714E0,1.2689719E0,3.3095021E0,0E0,0E0,0E0,0E0,0E0,0E0,0E0,0E0,0E0,0E0,0E0,0E0,0E0,0E0,0E0],"parents":[2147483647,0,0,1,1,2,2,3,3,4,4,5,5,6,6,7,7,8,8,9,9,10,10,11,11,12,12,13,13],"right_children":[2,4,6,8,10,12,14,16,18,20,22,24,26,28,-1,-1,-1,-1,-1,-1,-1,-1,-1,-1,-1,-1,-1,-1,-1],"split_conditions":[2E0,1.728922E2,3.9605858E1,1.2520979E2,3.1376953E0,2.9697778E0,1.3033487E2,5.0856716E1,6.88107E1,3.0514817E0,4.989195E2,3.9605858E1,1.729394E2,2.175181E2,-8.999017E-2,4.0503446E-2,-3.70891E-2,2.3648335E-2,1.288801E-1,-7.713628E-2,-9.6371025E-3,9.873593E-2,-1.2327103E-2,-5.7466917E-2,1.2133696E-2,-2.7183752E-4,1.0702959E-1,-4.7715716E-2,7.933616E-2],"split_indices":[4,0,5,1,6,10,0,5,0,10,2,5,1,1,0,0,0,0,0,0,0,0,0,0,0,0,0,0,0],"split_type":[0,0,0,0,0,0,0,0,0,0,0,0,0,0,0,0,0,0,0,0,0,0,0,0,0,0,0,0,0],"sum_hessian":[1.1186218E2,4.9227047E1,6.2635136E1,2.6105906E1,2.3121143E1,1.2062926E1,5.057221E1,2.606197E0,2.3499708E1,1.0525826E1,1.2595316E1,7.297073E0,4.7658534E0,6.1454525E0,4.4426754E1,1.2684578E0,1.3377393E0,1.398428E0,2.210128E1,8.482789E0,2.0430374E0,1.1471657E1,1.1236591E0,3.0691617E0,4.2279115E0,1.0975825E0,3.6682713E0,4.8014693E0,1.3439835E0],"tree_param":{"num_deleted":"0","num_feature":"11","num_nodes":"29","size_leaf_vector":"1"}},{"base_weights":[-1.5376094E-2,7.2391474E-1,-6.457342E-1,1.7175442E-2,1.0092906E0,3.7786642E-1,-8.694355E-1,8.3922726E-1,-5.081905E-1,1.1836727E0,4.0981874E-1,1.1465797E-1,6.0921375E-2,-5.222904E-2,-8.9723885E-2,8.5461535E-2,1.4877762E-2,3.780753E-2,-7.025732E-2,-1.1144101E-3,1.1237691E-1,8.0326304E-2,-5.5883795E-2,-6.2402796E-2,3.4687262E-2,-5.3847816E-2,7.297557E-2],"categories":[],"categories_nodes":[],"categories_segments":[],"categories_sizes":[],"default_left":[0,0,1,1,1,0,0,0,0,0,1,0,0,0,0,0,0,0,0,0,0,0,0,0,0,0,0],"id":9,"left_children":[1,3,5,7,9,11,13,15,17,19,21,-1,23,25,-1,-1,-1,-1,-1,-1,-1,-1,-1,-1,-1,-1,-1],"loss_changes":[5.1855347E1,1.03133335E1,1.4078533E1,7.2289352E0,3.3274498E0,3.1791303E0,5.1139374E0,3.277688E-1,2.915744E0,2.1693802E0,5.4041743E0,0E0,2.5975714E0,4.1362567E0,0E0,0E0,0E0,0E0,0E0,0E0,0E0,0E0,0E0,0E0,0E0,0E0,0E0],"parents":[2147483647,0,0,1,1,2,2,3,3,4,4,5,5,6,6,7,7,8,8,9,9,10,10,12,12,13,13],"right_children":[2,4,6,8,10,12,14,16,18,20,22,-1,24,26,-1,-1,-1,-1,-1,-1,-1,-1,-1,-1,-1,-1,-1],"split_conditions":[2E0,2.8811123E0,3.2810898E1,2.3346586E1,2.5229178E2,1.4530988E2,1.3217708E2,4.4391577E2,1.2561032E2,6.88107E1,2.4148655E1,1.1465797E-1,3.2810898E1,1.8397769E2,-8.9723885E-2,8.5461535E-2,1.4877762E-2,3.780753E-2,-7.025732E-2,-1.1144101E-3,1.1237691E-1,8.0326304E-2,-5.5883795E-2,-6.2402796E-2,3.4687262E-2,-5.3847816E-2,7.297557E-2],"split_indices":[4,10,5,5,0,0,0,2,0,0,5,0,5,1,0,0,0,0,0,0,0,0,0,0,0,0,0],"split_type":[0,0,0,0,0,0,0,0,0,0,0,0,0,0,0,0,0,0,0,0,0,0,0,0,0,0,0],"sum_hessian":[1.0927018E2,5.0221474E1,5.904871E1,1.4750854E1,3.547062E1,1.046668E1,4.858203E1,5.518508E0,9.232347E0,2.672266E1,8.747958E0,1.9457716E0,8.520908E0,6.7468467E0,4.1835182E1,4.3905773E0,1.1279303E0,1.9718841E0,7.2604623E0,1.4182794E0,2.530438E1,6.0492377E0,2.6987207E0,2.2211235E0,6.2997847E0,4.320163E0,2.4266841E0],"tree_param":{"num_deleted":"0","num_feature":"11","num_nodes":"27","size_leaf_vector":"1"}},{"base_weights":[1.8816037E-2,7.4964184E-1,-5.4341716E-1,1.047065E0,2.3820467E-1,5.63153E-1,-9.53364E-1,1.464465E-1,1.2242768E0,-6.439861E-1,5.5959946E-1,1.0812782E0,-3.0394232E-1,-1.4347741E-2,-8.726747E-2,3.9926216E-2,-4.5038514E-2,-1.067281E-2,1.1733046E-1,-6.5391704E-2,-1.2683468E-2,6.749371E-2,-5.958909E-3,-2.615715E-3,1.0926951E-1,-5.8990248E-2,5.2017827E-2],"categories":[],"categories_nodes":[],"categories_segments":[],"categories_sizes":[],"default_left":[1,0,0,0,0,0,0,0,0,0,0,0,0,0,0,0,0,0,0,0,0,0,0,0,0,0,0],"id":10,"left_children":[1,3,5,7,9,11,13,15,17,19,21,23,25,-1,-1,-1,-1,-1,-1,-1,-1,-1,-1,-1,-1,-1,-1],"loss_changes":[4.5235012E1,7.0302505E0,2.8771502E1,4.6031456E0,5.7167883E0,8.169952E0,4.3703842E-1,1.3874559E0,2.809616E0,1.2651324E-1,1.7627206E0,1.678957E0,2.6445866E0,0E0,0E0,0E0,0E0,0E0,0E0,0E0,0E0,0E0,0E0,0E0,0E0,0E0,0E0],"parents":[2147483647,0,0,1,1,2,2,3,3,4,4,5,5,6,6,7,7,8,8,9,9,10,10,11,11,12,12],"right_children":[2,4,6,8,10,12,14,16,18,20,22,24,26,-1,-1,-1,-1,-1,-1,-1,-1,-1,-1,-1,-1,-1,-1],"split_conditions":[4.5677376E1,2.55256E2,1.358626E2,1.4143611E2,4.5677376E1,2E0,1.4329228E2,4.4871976E2,7.5617874E1,3.0273209E0,5.220713E2,2.563707E0,3.053942E0,-1.4347741E-2,-8.726747E-2,3.9926216E-2,-4.5038514E-2,-1.067281E-2,1.1733046E-1,-6.5391704E-2,-1.2683468E-2,6.749371E-2,-5.958909E-3,-2.615715E-3,1.0926951E-1,-5.8990248E-2,5.2017827E-2],"split_indices":[5,0,0,1,5,4,0,2,0,10,2,10,10,0,0,0,0,0,0,0,0,0,0,0,0,0,0],"split_type":[0,0,0,0,0,0,0,0,0,0,0,0,0,0,0,0,0,0,0,0,0,0,0,0,0,0,0],"sum_hessian":[1.0809769E2,4.6856873E1,6.1240814E1,2.8965096E1,1.7891777E1,1.6453672E1,4.4787144E1,5.062591E0,2.3902504E1,4.509636E0,1.3382142E1,1.01447525E1,6.3089194E0,1.116469E0,4.3670673E1,3.684234E0,1.3783572E0,1.3067561E0,2.2595747E1,3.4920275E0,1.0176085E0,1.0109234E1,3.272908E0,1.1673913E0,8.977361E0,4.694595E0,1.6143243E0],"tree_param":{"num_deleted":"0","num_feature":"11","num_nodes":"27","size_leaf_vector":"1"}},{"base_weights":[-2.1880127E-3,6.0013485E-1,-5.589618E-1,1.1895145E-1,9.518144E-1,4.102398E-1,-7.913573E-1,-2.791819E-1,5.41858E-1,1.1955874E0,3.003758E-1,-2.927397E-1,7.549334E-1,2.048277E-1,-8.9039564E-2,1.1263461E-2,-5.235659E-2,8.341933E-2,-3.5628423E-2,1.1087944E-1,2.763899E-2,-4.4244144E-2,6.9502495E-2,8.280494E-3,-4.3795858E-2,6.934985E-3,7.930858E-2,-5.666935E-2,7.454801E-2],"categories":[],"categories_nodes":[],"categories_segments":[],"categories_sizes":[],"default_left":[0,1,1,0,0,1,0,0,0,1,0,0,0,0,0,0,0,0,0,0,0,0,0,0,0,0,0,0,0],"id":11,"left_children":[1,3,5,7,9,11,13,15,17,19,21,23,25,27,-1,-1,-1,-1,-1,-1,-1,-1,-1,-1,-1,-1,-1,-1,-1],"loss_changes":[3.5249443E1,8.431072E0,1.2626749E1,3.9334528E0,4.2506866E0,2.940244E0,8.958275E0,1.568992E0,4.4224567E0,2.9408264E-1,3.8328302E0,3.7393865E-1,6.005573E-1,4.7820024E0,0E0,0E0,0E0,0E0,0E0,0E0,0E0,0E0,0E0,0E0,0E0,0E0,0E0,0E0,0E0],"parents":[2147483647,0,0,1,1,2,2,3,3,4,4,5,5,6,6,7,7,8,8,9,9,10,10,11,11,12,12,13,13],"right_children":[2,4,6,8,10,12,14,16,18,20,22,24,26,28,-1,-1,-1,-1,-1,-1,-1,-1,-1,-1,-1,-1,-1,-1,-1],"split_conditions":[2E0,1.89548E2,3.0297235E1,2.1386511E2,2.6355243E2,2.5836418E0,1.3217708E2,1E0,4.5719135E2,2.994367E0,5.347589E3,2.5055966E2,1.6020358E2,2.818785E0,-8.9039564E-2,1.1263461E-2,-5.235659E-2,8.341933E-2,-3.5628423E-2,1.1087944E-1,2.763899E-2,-4.4244144E-2,6.9502495E-2,8.280494E-3,-4.3795858E-2,6.934985E-3,7.930858E-2,-5.666935E-2,7.454801E-2],"split_indices":[4,1,5,3,0,10,0,4,2,6,5,0,1,10,0,0,0,0,0,0,0,0,0,0,0,0,0,0,0],"split_type":[0,0,0,0,0,0,0,0,0,0,0,0,0,0,0,0,0,0,0,0,0,0,0,0,0,0,0,0,0],"sum_hessian":[1.0310974E2,4.9491505E1,5.3618233E1,2.1463053E1,2.8028454E1,1.02220545E1,4.339618E1,1.123038E1,1.0232672E1,1.9788248E1,8.240205E0,3.4127352E0,6.809319E0,7.188619E0,3.6207558E1,5.057721E0,6.1726594E0,7.2623734E0,2.9702983E0,1.8637926E1,1.1503222E0,3.0609705E0,5.1792345E0,1.3195734E0,2.0931618E0,1.3220917E0,5.4872274E0,3.0698903E0,4.1187286E0],"tree_param":{"num_deleted":"0","num_feature":"11","num_nodes":"29","size_leaf_vector":"1"}},{"base_weights":[-3.845409E-2,9.8134243E-1,-3.8384408E-1,1.0392761E0,-1.3274901E-2,2.5817016E-1,-7.1908724E-1,2.9653743E-1,1.157476E0,9.7194296E-1,7.4381777E-3,1.06974624E-1,-8.7446295E-2,4.675679E-2,-1.8077325E-2,2.441912E-2,1.0831932E-1,7.8027095E-3,9.978143E-2,-6.8821386E-2,3.319373E-2,-4.916169E-2,5.4887E-2],"categories":[],"categories_nodes":[],"categories_segments":[],"categories_sizes":[],"default_left":[0,0,1,0,0,0,0,0,0,0,0,0,0,0,0,0,0,0,0,0,0,0,0],"id":12,"left_children":[1,3,5,7,-1,9,11,13,15,17,19,21,-1,-1,-1,-1,-1,-1,-1,-1,-1,-1,-1],"loss_changes":[3.5914867E1,1.8410549E0,1.6562126E1,1.8227634E0,0E0,4.795745E0,1.0586817E1,6.2914675E-1,5.283756E-1,7.4745655E-1,6.104955E0,4.493858E0,0E0,0E0,0E0,0E0,0E0,0E0,0E0,0E0,0E0,0E0,0E0],"parents":[2147483647,0,0,1,1,2,2,3,3,5,5,6,6,7,7,8,8,9,9,10,10,11,11],"right_children":[2,4,6,8,-1,10,12,14,16,18,20,22,-1,-1,-1,-1,-1,-1,-1,-1,-1,-1,-1],"split_conditions":[1E0,5.889076E2,4.040229E1,6.890869E-1,-1.3274901E-2,1.3382341E2,1.3797333E2,2.9207202E2,1.7073184E2,8.524731E1,4.040229E1,1.6602422E2,-8.7446295E-2,4.675679E-2,-1.8077325E-2,2.441912E-2,1.0831932E-1,7.8027095E-3,9.978143E-2,-6.8821386E-2,3.319373E-2,-4.916169E-2,5.4887E-2],"split_indices":[4,2,5,7,0,0,0,2,2,0,5,1,0,0,0,0,0,0,0,0,0,0,0],"split_type":[0,0,0,0,0,0,0,0,0,0,0,0,0,0,0,0,0,0,0,0,0,0,0],"sum_hessian":[9.989554E1,2.4807575E1,7.508796E1,2.3672035E1,1.1355394E0,2.583741E1,4.9250553E1,3.731703E0,1.9940332E1,5.968922E0,1.9868486E1,1.1666243E1,3.7584312E1,2.5459003E0,1.1858028E0,1.3259537E0,1.8614378E1,1.0172592E0,4.951663E0,5.9786377E0,1.388985E1,5.0370975E0,6.629145E0],"tree_param":{"num_deleted":"0","num_feature":"11","num_nodes":"23","size_leaf_vector":"1"}},{"base_weights":[1.1403219E-2,5.682532E-1,-5.539559E-1,-8.59929E-3,7.992056E-1,2.3324214E-1,-7.9541135E-1,2.927956E-1,-4.28918E-1,9.840633E-1,2.828206E-1,8.715541E-1,-9.145759E-2,1.8267563E-2,-8.615526E-2,-5.4070827E-2,4.6942186E-2,2.3238905E-2,-6.4359434E-2,9.895675E-2,3.8870346E-2,-2.4700344E-2,8.5863106E-2,7.934987E-3,9.920467E-2,-3.364308E-2,3.9451934E-2,-6.1186682E-2,4.9048953E-2],"categories":[],"categories_nodes":[],"categories_segments":[],"categories_sizes":[],"default_left":[0,0,1,1,0,0,0,0,0,1,0,0,1,0,0,0,0,0,0,0,0,0,0,0,0,0,0,0,0],"id":13,"left_children":[1,3,5,7,9,11,13,15,17,19,21,23,25,27,-1,-1,-1,-1,-1,-1,-1,-1,-1,-1,-1,-1,-1,-1,-1],"loss_changes":[3.1186987E1,6.6544075E0,9.530677E0,2.0581093E0,3.1239853E0,2.6319036E0,5.0029697E0,2.251145E0,1.5171876E0,1.1726494E0,4.30118E0,6.7041254E-1,1.5202532E0,3.0408278E0,0E0,0E0,0E0,0E0,0E0,0E0,0E0,0E0,0E0,0E0,0E0,0E0,0E0,0E0,0E0],"parents":[2147483647,0,0,1,1,2,2,3,3,4,4,5,5,6,6,7,7,8,8,9,9,10,10,11,11,12,12,13,13],"right_children":[2,4,6,8,10,12,14,16,18,20,22,24,26,28,-1,-1,-1,-1,-1,-1,-1,-1,-1,-1,-1,-1,-1,-1,-1],"split_conditions":[2E0,1.6884138E2,3.2810898E1,5.2343906E1,3.5048505E2,1.6961069E2,1.3033487E2,1.9114236E2,1.1873405E2,2.4397583E0,3.0806058E2,1.6493517E2,3.0109513E0,2.8245842E0,-8.615526E-2,-5.4070827E-2,4.6942186E-2,2.3238905E-2,-6.4359434E-2,9.895675E-2,3.8870346E-2,-2.4700344E-2,8.5863106E-2,7.934987E-3,9.920467E-2,-3.364308E-2,3.9451934E-2,-6.1186682E-2,4.9048953E-2],"split_indices":[4,1,5,5,2,0,0,2,0,6,3,1,10,10,0,0,0,0,0,0,0,0,0,0,0,0,0,0,0],"split_type":[0,0,0,0,0,0,0,0,0,0,0,0,0,0,0,0,0,0,0,0,0,0,0,0,0,0,0,0,0],"sum_hessian":[9.706294E1,4.889688E1,4.816606E1,1.4254932E1,3.464195E1,1.1313986E1,3.6852077E1,8.478623E0,5.7763085E0,2.4842903E1,9.7990465E0,3.2468908E0,8.067095E0,6.261936E0,3.059014E1,1.3968451E0,7.0817785E0,1.7271698E0,4.049139E0,1.972685E1,5.1160517E0,5.676939E0,4.1221075E0,1.0531518E0,2.193739E0,5.4546027E0,2.6124923E0,2.5678127E0,3.6941235E0],"tree_param":{"num_deleted":"0","num_feature":"11","num_nodes":"29","size_leaf_vector":"1"}},{"base_weights":[-6.434661E-3,3.450208E-1,-8.228621E-1,8.775209E-1,-2.7866704E-2,-9.090194E-1,-8.73139E-2,-2.2540845E-2,1.0014329E0,-7.157843E-1,6.44393E-1,-8.6739674E-2,-1.9391392E-1,-3.131754E-1,2.7872398E-2,6.1141435E-2,-4.473423E-2,1.4857821E-2,1.01224385E-1,-6.8758E-3,-7.333569E-2,2.3918755E-2,7.787447E-2,2.334286E-2,-4.822159E-2,-3.7008375E-2,-4.6358206E-3],"categories":[],"categories_nodes":[],"categories_segments":[],"categories_sizes":[],"default_left":[0,0,0,0,0,1,0,0,0,0,1,0,0,1,0,0,0,0,0,0,0,0,0,0,0,0,0],"id":14,"left_children":[1,3,5,7,9,11,13,15,17,19,21,-1,23,25,-1,-1,-1,-1,-1,-1,-1,-1,-1,-1,-1,-1,-1],"loss_changes":[2.7737661E1,1.3445323E1,1.7640381E0,3.1306515E0,1.9293549E1,8.284893E-1,4.696709E-1,1.7865481E0,2.3422642E0,1.2424841E0,1.5364723E0,0E0,6.1878484E-1,5.9524804E-2,0E0,0E0,0E0,0E0,0E0,0E0,0E0,0E0,0E0,0E0,0E0,0E0,0E0],"parents":[2147483647,0,0,1,1,2,2,3,3,4,4,5,5,6,6,7,7,8,8,9,9,10,10,12,12,13,13],"right_children":[2,4,6,8,10,12,14,16,18,20,22,-1,24,26,-1,-1,-1,-1,-1,-1,-1,-1,-1,-1,-1,-1,-1],"split_conditions":[3E0,1.4176901E2,5.347589E3,2.6116815E0,3.1376953E0,3.0919342E0,9.959717E-1,1E0,8.051765E1,1E0,1.9615216E2,-8.6739674E-2,2.2673773E2,2.8306875E0,2.7872398E-2,6.1141435E-2,-4.473423E-2,1.4857821E-2,1.01224385E-1,-6.8758E-3,-7.333569E-2,2.3918755E-2,7.787447E-2,2.334286E-2,-4.822159E-2,-3.7008375E-2,-4.6358206E-3],"split_indices":[4,0,5,10,6,10,7,4,0,4,1,0,0,10,0,0,0,0,0,0,0,0,0,0,0,0,0],"split_type":[0,0,0,0,0,0,0,0,0,0,0,0,0,0,0,0,0,0,0,0,0,0,0,0,0,0,0],"sum_hessian":[9.467839E1,6.65901E1,2.8088287E1,2.6868032E1,3.9722073E1,2.493207E1,3.1562188E0,3.3503222E0,2.351771E1,1.9600403E1,2.012167E1,2.2835825E1,2.0962453E0,2.1463165E0,1.0099024E0,1.177244E0,2.1730783E0,3.321795E0,2.0195915E1,2.866848E0,1.6733555E1,8.225234E0,1.1896435E1,1.00506E0,1.0911855E0,1.1456395E0,1.0006769E0],"tree_param":{"num_deleted":"0","num_feature":"11","num_nodes":"27","size_leaf_vector":"1"}},{"base_weights":[-4.302093E-2,4.0809265E-1,-5.394906E-1,-8.322415E-3,6.726359E-1,7.018182E-2,-8.10099E-1,-3.1870887E-1,4.149328E-1,7.649026E-1,-1.581287E-2,-3.1458217E-1,7.460588E-1,-1.3188958E-1,-8.773511E-2,-7.7062706E-3,-6.537988E-2,7.464914E-2,-3.9549958E-2,1.4727868E-2,7.807526E-2,3.2418873E-2,-3.81482E-2,2.2664756E-2,-4.685654E-2,1.0525099E-1,2.5488593E-2,-6.217863E-2,3.3431273E-2],"categories":[],"categories_nodes":[],"categories_segments":[],"categories_sizes":[],"default_left":[0,1,1,0,0,1,0,0,0,0,0,0,0,0,0,0,0,0,0,0,0,0,0,0,0,0,0,0,0],"id":15,"left_children":[1,3,5,7,9,11,13,15,17,19,21,23,25,27,-1,-1,-1,-1,-1,-1,-1,-1,-1,-1,-1,-1,-1,-1,-1],"loss_changes":[2.099592E1,5.4222946E0,7.4138327E0,2.7715414E0,1.9228745E0,4.0388875E0,3.330885E0,1.0930647E0,3.5284185E0,1.4956656E0,8.484931E-1,1.3011221E0,7.6688457E-1,2.284617E0,0E0,0E0,0E0,0E0,0E0,0E0,0E0,0E0,0E0,0E0,0E0,0E0,0E0,0E0,0E0],"parents":[2147483647,0,0,1,1,2,2,3,3,4,4,5,5,6,6,7,7,8,8,9,9,10,10,11,11,12,12,13,13],"right_children":[2,4,6,8,10,12,14,16,18,20,22,24,26,28,-1,-1,-1,-1,-1,-1,-1,-1,-1,-1,-1,-1,-1,-1,-1],"split_conditions":[2E0,1.8328334E2,4.6432873E1,2.1939072E2,4.3420352E2,3.0273209E0,1.358626E2,3.0449734E2,4.383866E2,6.9506836E-1,3.4238635E2,3.4017224E2,1.3990443E2,1.5560141E2,-8.773511E-2,-7.7062706E-3,-6.537988E-2,7.464914E-2,-3.9549958E-2,1.4727868E-2,7.807526E-2,3.2418873E-2,-3.81482E-2,2.2664756E-2,-4.685654E-2,1.0525099E-1,2.5488593E-2,-6.217863E-2,3.3431273E-2],"split_indices":[4,1,5,3,0,10,0,2,2,7,2,2,0,1,0,0,0,0,0,0,0,0,0,0,0,0,0,0,0],"split_type":[0,0,0,0,0,0,0,0,0,0,0,0,0,0,0,0,0,0,0,0,0,0,0,0,0,0,0,0,0],"sum_hessian":[9.176375E1,4.8171276E1,4.3592476E1,1.9090164E1,2.9081112E1,1.3628511E1,2.9963963E1,1.1156071E1,7.934094E0,2.5546314E1,3.5347977E0,9.025196E0,4.603316E0,6.2077055E0,2.3756256E1,7.868181E0,3.287889E0,5.361936E0,2.572158E0,4.102098E0,2.1444216E1,1.9006279E0,1.6341698E0,2.348114E0,6.6770816E0,1.6068308E0,2.9964852E0,2.7647772E0,3.4429286E0],"tree_param":{"num_deleted":"0","num_feature":"11","num_nodes":"29","size_leaf_vector":"1"}},{"base_weights":[-2.3665689E-2,5.7700396E-1,-3.585982E-1,-3.478425E-1,7.740161E-1,-9.1616184E-1,5.005509E-1,4.3007426E-2,-6.1857086E-1,-1.7576495E-2,8.65414E-1,-3.0896607E-1,-8.634822E-2,5.829541E-1,-5.6294587E-2,-1.3837266E-2,-6.360156E-2,3.419711E-2,-3.8551763E-2,8.453656E-2,-2.607182E-2,1.5758371E-2,-5.2135054E-2,2.1648768E-2,7.45384E-2],"categories":[],"categories_nodes":[],"categories_segments":[],"categories_sizes":[],"default_left":[0,0,0,0,0,0,1,0,0,0,0,0,0,1,0,0,0,0,0,0,0,0,0,0,0],"id":16,"left_children":[1,3,5,7,9,11,13,-1,15,17,19,21,-1,23,-1,-1,-1,-1,-1,-1,-1,-1,-1,-1,-1],"loss_changes":[1.8456755E1,6.2559814E0,2.8652044E1,1.7396744E0,1.9973774E0,6.5044403E-1,2.5739465E0,0E0,1.08453274E-1,7.859107E-1,2.3698502E0,6.0812306E-1,0E0,1.7073798E0,0E0,0E0,0E0,0E0,0E0,0E0,0E0,0E0,0E0,0E0,0E0],"parents":[2147483647,0,0,1,1,2,2,3,3,4,4,5,5,6,6,8,8,9,9,10,10,11,11,13,13],"right_children":[2,4,6,8,10,12,14,-1,16,18,20,22,-1,24,-1,-1,-1,-1,-1,-1,-1,-1,-1,-1,-1],"split_conditions":[1.4329228E2,1.3180045E2,5.347589E3,1E0,7.5617874E1,1E0,7.652326E-1,4.3007426E-2,9.270575E1,2.7385075E0,4E0,7.4843506E1,-8.634822E-2,2.0209697E2,-5.6294587E-2,-1.3837266E-2,-6.360156E-2,3.419711E-2,-3.8551763E-2,8.453656E-2,-2.607182E-2,1.5758371E-2,-5.2135054E-2,2.1648768E-2,7.45384E-2],"split_indices":[0,1,5,4,0,4,8,0,0,6,4,5,0,1,0,0,0,0,0,0,0,0,0,0,0],"split_type":[0,0,0,0,0,0,0,0,0,0,0,0,0,0,0,0,0,0,0,0,0,0,0,0,0],"sum_hessian":[8.971229E1,3.1857014E1,5.785527E1,5.4600363E0,2.6396976E1,3.5045418E1,2.2809853E1,1.1592654E0,4.3007708E0,2.8159418E0,2.3581036E1,2.8724236E0,3.2172997E1,2.170388E1,1.1059729E0,1.1227596E0,3.178011E0,1.4691333E0,1.3468084E0,2.2339043E1,1.2419924E0,1.1554928E0,1.7169309E0,9.884374E0,1.1819506E1],"tree_param":{"num_deleted":"0","num_feature":"11","num_nodes":"25","size_leaf_vector":"1"}},{"base_weights":[-2.5859888E-4,4.1019765E-1,-5.143283E-1,6.961616E-1,8.975747E-2,1.7819428E-1,-7.743788E-1,1.5150508E-1,8.1645757E-1,5.5115837E-1,-2.0856327E-1,7.2584176E-1,-1.0275597E-1,-1.6624984E-1,-8.6987294E-2,-2.0454431E-2,6.648825E-2,7.812326E-2,9.5574436E-4,-1.5637256E-2,6.127074E-2,2.6784277E-2,-6.96071E-2,1.4328296E-2,7.757703E-2,-5.836434E-2,1.0091665E-2,-4.513564E-2,6.529763E-2],"categories":[],"categories_nodes":[],"categories_segments":[],"categories_sizes":[],"default_left":[0,0,1,0,1,0,0,0,0,0,0,0,0,0,0,0,0,0,0,0,0,0,0,0,0,0,0,0,0],"id":17,"left_children":[1,3,5,7,9,11,13,15,17,19,21,23,25,27,-1,-1,-1,-1,-1,-1,-1,-1,-1,-1,-1,-1,-1,-1,-1],"loss_changes":[1.9178194E1,4.5686016E0,7.4050007E0,1.6163845E0,3.5534384E0,1.8946029E0,3.289074E0,1.5097394E0,8.8547134E-1,1.0658319E0,4.775243E0,1.8170547E-1,1.0922818E0,2.8442264E0,0E0,0E0,0E0,0E0,0E0,0E0,0E0,0E0,0E0,0E0,0E0,0E0,0E0,0E0,0E0],"parents":[2147483647,0,0,1,1,2,2,3,3,4,4,5,5,6,6,7,7,8,8,9,9,10,10,11,11,12,12,13,13],"right_children":[2,4,6,8,10,12,14,16,18,20,22,24,26,28,-1,-1,-1,-1,-1,-1,-1,-1,-1,-1,-1,-1,-1,-1,-1],"split_conditions":[2E0,1E0,3.2810898E1,7.200928E-1,2.1655832E1,1.664E2,1.4329228E2,2.3851472E2,5.220713E2,6.776123E-1,1.4176901E2,1.6493517E2,3.2810898E1,2.287741E2,-8.6987294E-2,-2.0454431E-2,6.648825E-2,7.812326E-2,9.5574436E-4,-1.5637256E-2,6.127074E-2,2.6784277E-2,-6.96071E-2,1.4328296E-2,7.757703E-2,-5.836434E-2,1.0091665E-2,-4.513564E-2,6.529763E-2],"split_indices":[4,4,5,7,5,0,0,1,2,7,0,1,5,1,0,0,0,0,0,0,0,0,0,0,0,0,0,0,0],"split_type":[0,0,0,0,0,0,0,0,0,0,0,0,0,0,0,0,0,0,0,0,0,0,0,0,0,0,0,0,0],"sum_hessian":[8.889069E1,4.9538776E1,3.9351917E1,2.5558025E1,2.3980751E1,1.0828924E1,2.8522993E1,5.032433E0,2.0525593E1,9.083745E0,1.4897007E1,3.1348112E0,7.694113E0,7.2962284E0,2.1226765E1,3.431876E0,1.600557E0,1.9218319E1,1.3072742E0,1.3263197E0,7.7574253E0,8.106144E0,6.7908626E0,1.027451E0,2.1073601E0,1.6036171E0,6.0904956E0,5.620775E0,1.6754528E0],"tree_param":{"num_deleted":"0","num_feature":"11","num_nodes":"29","size_leaf_vector":"1"}},{"base_weights":[8.21414E-3,6.026715E-1,-3.289252E-1,-2.5426227E-1,7.799315E-1,-8.4579295E-1,3.6066425E-1,3.1156173E-1,-5.513005E-2,-1.2908229E-1,8.714551E-1,-2.0868962E-1,-8.1183195E-2,4.4293788E-1,-6.019777E-2,-1.3878199E-2,5.6264807E-2,2.7890807E-2,-4.4193387E-2,-8.349971E-3,8.759101E-2,-4.825212E-2,3.3382293E-2,6.010875E-2,1.1084547E-2],"categories":[],"categories_nodes":[],"categories_segments":[],"categories_sizes":[],"default_left":[0,0,0,1,0,0,1,0,0,0,0,1,0,0,0,0,0,0,0,0,0,0,0,0,0],"id":18,"left_children":[1,3,5,7,9,11,13,15,-1,17,19,21,-1,23,-1,-1,-1,-1,-1,-1,-1,-1,-1,-1,-1],"loss_changes":[1.7477932E1,4.991582E0,2.0145233E1,1.4402256E0,2.3082619E0,9.625282E-1,2.3756032E0,5.422255E-1,0E0,6.74168E-1,2.456152E0,9.401978E-1,0E0,1.5961175E0,0E0,0E0,0E0,0E0,0E0,0E0,0E0,0E0,0E0,0E0,0E0],"parents":[2147483647,0,0,1,1,2,2,3,3,4,4,5,5,6,6,7,7,9,9,10,10,11,11,13,13],"right_children":[2,4,6,8,10,12,14,16,-1,18,20,22,-1,24,-1,-1,-1,-1,-1,-1,-1,-1,-1,-1,-1],"split_conditions":[1.3990443E2,2.666074E0,5.347589E3,5.2343906E1,6.88107E1,1E0,6.600009E-1,2.1880754E2,-5.513005E-2,2.8569336E0,1.3391042E2,3.0241158E0,-8.1183195E-2,3.2293823E2,-6.019777E-2,-1.3878199E-2,5.6264807E-2,2.7890807E-2,-4.4193387E-2,-8.349971E-3,8.759101E-2,-4.825212E-2,3.3382293E-2,6.010875E-2,1.1084547E-2],"split_indices":[0,10,5,5,0,4,8,3,0,6,1,10,0,2,0,0,0,0,0,0,0,0,0,0,0],"split_type":[0,0,0,0,0,0,0,0,0,0,0,0,0,0,0,0,0,0,0,0,0,0,0,0,0],"sum_hessian":[8.5219604E1,3.0555443E1,5.466416E1,5.1627226E0,2.539272E1,3.111559E1,2.3548574E1,2.0522316E0,3.110491E0,2.285245E0,2.3107475E1,2.9061267E0,2.8209463E1,2.2333578E1,1.2149968E0,1.0303059E0,1.0219257E0,1.097734E0,1.187511E0,2.2146502E0,2.0892824E1,1.9049377E0,1.001189E0,1.247197E1,9.861608E0],"tree_param":{"num_deleted":"0","num_feature":"11","num_nodes":"25","size_leaf_vector":"1"}},{"base_weights":[-3.9884064E-2,3.0262682E-1,-4.8239073E-1,5.848401E-1,-5.7656653E-2,1.9034135E-1,-8.212106E-2,-2.8462607E-2,6.574003E-1,4.817671E-1,-3.3845156E-1,-5.0411564E-1,5.396098E-1,2.8864355E-3,7.039675E-2,-1.1579876E-2,7.258715E-2,-6.322632E-2,2.3683062E-2,3.2569154E-3,-6.0247812E-2,-2.083988E-2,6.0887545E-2],"categories":[],"categories_nodes":[],"categories_segments":[],"categories_sizes":[],"default_left":[1,0,0,0,0,0,0,0,0,0,0,0,0,0,0,0,0,0,0,0,0,0,0],"id":19,"left_children":[1,3,5,7,9,11,-1,-1,13,15,17,19,21,-1,-1,-1,-1,-1,-1,-1,-1,-1,-1],"loss_changes":[1.2746057E1,4.86096E0,1.0779437E1,1.9544458E0,3.4595907E0,3.9401505E0,0E0,0E0,1.9293432E0,1.6626186E0,3.4483879E0,5.223975E-1,1.2700989E0,0E0,0E0,0E0,0E0,0E0,0E0,0E0,0E0,0E0,0E0],"parents":[2147483647,0,0,1,1,2,2,3,3,4,4,5,5,8,8,9,9,10,10,11,11,12,12],"right_children":[2,4,6,8,10,12,-1,-1,14,16,18,20,22,-1,-1,-1,-1,-1,-1,-1,-1,-1,-1],"split_conditions":[5.385837E1,2.2512209E2,1.4530988E2,9.049282E1,2.792181E2,2.8709574E0,-8.212106E-2,-2.8462607E-2,9.550544E1,1.9847948E2,2.539483E2,3.255293E2,1.4602481E2,2.8864355E-3,7.039675E-2,-1.1579876E-2,7.258715E-2,-6.322632E-2,2.3683062E-2,3.2569154E-3,-6.0247812E-2,-2.083988E-2,6.0887545E-2],"split_indices":[5,0,0,1,2,10,0,0,0,1,3,2,1,0,0,0,0,0,0,0,0,0,0],"split_type":[0,0,0,0,0,0,0,0,0,0,0,0,0,0,0,0,0,0,0,0,0,0,0],"sum_hessian":[8.2134026E1,4.647633E1,3.5657696E1,2.5712341E1,2.0763988E1,1.4123053E1,2.1534645E1,1.6658946E0,2.4046446E1,6.8633533E0,1.3900636E1,4.5777264E0,9.545326E0,4.209372E0,1.9837074E1,2.5930707E0,4.2702823E0,8.555454E0,5.345181E0,1.2554212E0,3.3223054E0,1.3350066E0,8.2103195E0],"tree_param":{"num_deleted":"0","num_feature":"11","num_nodes":"23","size_leaf_vector":"1"}},{"base_weights":[-5.295606E-2,2.8610054E-1,-4.954711E-1,3.5509148E-1,-6.940511E-2,1.2133739E-1,-7.831895E-2,7.8180805E-2,5.979798E-1,-5.686128E-1,4.5929405E-1,-2.4618292E-2,5.51274E-2,6.5119974E-2,-1.6544418E-2,-3.4795466E-3,-6.3486576E-2,-2.205933E-2,5.172858E-2],"categories":[],"categories_nodes":[],"categories_segments":[],"categories_sizes":[],"default_left":[1,1,0,0,0,0,0,1,0,0,0,0,0,0,0,0,0,0,0],"id":20,"left_children":[1,3,5,7,-1,9,-1,11,13,15,17,-1,-1,-1,-1,-1,-1,-1,-1],"loss_changes":[1.218572E1,3.635246E0,8.239397E0,2.9089313E0,0E0,3.5668488E0,0E0,4.2429667E0,2.4166098E0,3.4302258E-1,9.598429E-1,0E0,0E0,0E0,0E0,0E0,0E0,0E0,0E0],"parents":[2147483647,0,0,1,1,2,2,3,3,5,5,7,7,8,8,9,9,10,10],"right_children":[2,4,6,8,-1,10,-1,12,14,16,18,-1,-1,-1,-1,-1,-1,-1,-1],"split_conditions":[5.2343906E1,8.657308E-1,1.3797333E2,2.1441484E2,-6.940511E-2,2.8854609E0,-7.831895E-2,2.175181E2,6.650468E2,3.103352E2,1.4430896E2,-2.4618292E-2,5.51274E-2,6.5119974E-2,-1.6544418E-2,-3.4795466E-3,-6.3486576E-2,-2.205933E-2,5.172858E-2],"split_indices":[5,8,0,3,0,10,0,1,2,2,1,0,0,0,0,0,0,0,0],"split_type":[0,0,0,0,0,0,0,0,0,0,0,0,0,0,0,0,0,0,0],"sum_hessian":[7.9272964E1,4.508338E1,3.4189583E1,4.2945183E1,2.1381998E0,1.317696E1,2.101262E1,2.0684828E1,2.2260353E1,4.1079454E0,9.069015E0,1.2768458E1,7.91637E0,1.9243872E1,3.0164812E0,1.1059637E0,3.0019817E0,1.11914E0,7.949875E0],"tree_param":{"num_deleted":"0","num_feature":"11","num_nodes":"19","size_leaf_vector":"1"}},{"base_weights":[-8.485911E-3,2.1101068E-1,-6.5807885E-1,5.9015006E-1,-6.2401175E-2,-1.0615993E-1,-7.721383E-2,1.4886136E-1,7.601779E-1,-5.979869E-1,3.3076206E-1,2.4626425E-1,-4.2577645E-1,-2.3802599E-2,5.991617E-2,-4.389362E-3,7.386416E-2,-6.891848E-2,-2.4840243E-3,-6.8947775E-3,4.5611627E-2,-1.0803846E-2,5.3664915E-2,-8.502665E-3,-4.7756545E-2],"categories":[],"categories_nodes":[],"categories_segments":[],"categories_sizes":[],"default_left":[0,0,1,0,0,0,0,0,0,1,0,0,0,0,0,0,0,0,0,0,0,0,0,0,0],"id":21,"left_children":[1,3,5,7,9,11,-1,13,15,17,19,21,23,-1,-1,-1,-1,-1,-1,-1,-1,-1,-1,-1,-1],"loss_changes":[1.1281791E1,6.1704454E0,2.1128044E0,1.7541561E0,7.6273646E0,8.317047E-1,0E0,1.9205558E0,9.078522E-1,1.4422684E0,1.544075E0,5.4627967E-1,8.01484E-2,0E0,0E0,0E0,0E0,0E0,0E0,0E0,0E0,0E0,0E0,0E0,0E0],"parents":[2147483647,0,0,1,1,2,2,3,3,4,4,5,5,7,7,8,8,9,9,10,10,11,11,12,12],"right_children":[2,4,6,8,10,12,-1,14,16,18,20,22,24,-1,-1,-1,-1,-1,-1,-1,-1,-1,-1,-1,-1],"split_conditions":[3E0,1.358626E2,4.6432873E1,1.6403966E2,3.1376953E0,2.5055966E2,-7.721383E-2,2.1694485E2,6.88107E1,3.0327542E0,1.9401193E2,1.997136E2,9.2944336E-1,-2.3802599E-2,5.991617E-2,-4.389362E-3,7.386416E-2,-6.891848E-2,-2.4840243E-3,-6.8947775E-3,4.5611627E-2,-1.0803846E-2,5.3664915E-2,-8.502665E-3,-4.7756545E-2],"split_indices":[4,0,5,1,6,0,0,3,0,10,3,1,7,0,0,0,0,0,0,0,0,0,0,0,0],"split_type":[0,0,0,0,0,0,0,0,0,0,0,0,0,0,0,0,0,0,0,0,0,0,0,0,0],"sum_hessian":[7.715023E1,5.8169872E1,1.8980358E1,2.388716E1,3.4282715E1,5.4528356E0,1.3527523E1,7.1654716E0,1.6721687E1,1.4292214E1,1.99905E1,2.7024682E0,2.7503674E0,4.2528586E0,2.9126132E0,1.1777236E0,1.5543963E1,1.077911E1,3.513105E0,6.202264E0,1.3788236E1,1.6415406E0,1.0609275E0,1.1181983E0,1.632169E0],"tree_param":{"num_deleted":"0","num_feature":"11","num_nodes":"25","size_leaf_vector":"1"}},{"base_weights":[1.2218613E-2,3.1937304E-1,-4.0643165E-1,-5.2926443E-3,5.229569E-1,-6.344511E-1,3.1523785E-1,2.4517384E-1,-5.844119E-1,5.861704E-1,-4.9206287E-2,6.8140976E-2,-8.4565735E-1,6.488709E-1,-2.7468565E-1,-2.0665003E-2,5.9107773E-2,-5.449008E-3,-6.489435E-2,-3.1767257E-2,5.7651944E-2,-3.6580376E-2,2.1753235E-2,-2.6880072E-2,-8.259294E-2,6.999479E-2,2.705501E-3,1.6364193E-2,-5.390035E-2],"categories":[],"categories_nodes":[],"categories_segments":[],"categories_sizes":[],"default_left":[0,0,1,0,1,1,1,0,0,0,0,1,0,0,0,0,0,0,0,0,0,0,0,0,0,0,0,0,0],"id":22,"left_children":[1,3,5,7,9,11,13,15,17,19,-1,21,23,25,27,-1,-1,-1,-1,-1,-1,-1,-1,-1,-1,-1,-1,-1,-1],"loss_changes":[9.958628E0,2.9538822E0,5.5952177E0,2.7827854E0,2.1767068E0,3.804018E0,1.8590872E0,2.7707996E0,3.7075937E-1,1.5751381E0,0E0,6.55121E-1,4.9377918E-1,4.3528104E-1,6.69485E-1,0E0,0E0,0E0,0E0,0E0,0E0,0E0,0E0,0E0,0E0,0E0,0E0,0E0,0E0],"parents":[2147483647,0,0,1,1,2,2,3,3,4,4,5,5,6,6,7,7,8,8,9,9,11,11,12,12,13,13,14,14],"right_children":[2,4,6,8,10,12,14,16,18,20,-1,22,24,26,28,-1,-1,-1,-1,-1,-1,-1,-1,-1,-1,-1,-1,-1,-1],"split_conditions":[2E0,2.0101074E2,3.0491168E0,2.8715228E2,8.657308E-1,2.0935404E1,6.92638E1,1.9847948E2,1.3382341E2,8.733855E1,-4.9206287E-2,1.08441635E2,1.1873405E2,3.3927444E2,1.3797333E2,-2.0665003E-2,5.9107773E-2,-5.449008E-3,-6.489435E-2,-3.1767257E-2,5.7651944E-2,-3.6580376E-2,2.1753235E-2,-2.6880072E-2,-8.259294E-2,6.999479E-2,2.705501E-3,1.6364193E-2,-5.390035E-2],"split_indices":[4,3,10,2,8,5,5,1,0,1,0,1,0,0,0,0,0,0,0,0,0,0,0,0,0,0,0,0,0],"split_type":[0,0,0,0,0,0,0,0,0,0,0,0,0,0,0,0,0,0,0,0,0,0,0,0,0,0,0,0,0],"sum_hessian":[7.54352E1,4.3648445E1,3.178676E1,1.7197197E1,2.645125E1,2.4246628E1,7.5401325E0,1.2407606E1,4.78959E0,2.5402134E1,1.0491168E0,5.760686E0,1.848594E1,4.7524476E0,2.7876852E0,5.966713E0,6.440893E0,1.2893385E0,3.5002515E0,1.090523E0,2.431161E1,1.1832842E0,4.5774016E0,2.750218E0,1.57357235E1,3.7208831E0,1.0315644E0,1.3400117E0,1.4476733E0],"tree_param":{"num_deleted":"0","num_feature":"11","num_nodes":"29","size_leaf_vector":"1"}},{"base_weights":[2.8091155E-2,3.883536E-1,-3.2515663E-1,6.5249586E-1,1.2087231E-1,-6.121794E-1,3.7620965E-1,-1.6510332E-2,7.3271054E-1,4.899437E-1,-7.918923E-2,-7.579319E-1,-4.885211E-2,8.595112E-1,-2.2415121E-1,-1.853284E-3,7.144863E-2,-1.5231367E-2,6.237069E-2,-4.8901543E-2,3.059813E-2,-8.0143556E-2,-2.8796356E-2,3.6013294E-2,-3.3091146E-2,8.6805046E-2,1.4479349E-2,-4.8671834E-2,4.037609E-2],"categories":[],"categories_nodes":[],"categories_segments":[],"categories_sizes":[],"default_left":[0,0,0,0,0,1,0,0,0,0,0,0,0,1,1,0,0,0,0,0,0,0,0,0,0,0,0,0,0],"id":23,"left_children":[1,3,5,7,9,11,13,-1,15,17,19,21,23,25,27,-1,-1,-1,-1,-1,-1,-1,-1,-1,-1,-1,-1,-1,-1],"loss_changes":[9.766163E0,2.6029515E0,8.039217E0,1.3997841E0,1.5219581E0,2.254302E0,3.640871E0,0E0,8.188982E-1,1.0810592E0,2.8865767E0,9.9817276E-1,1.1213119E0,3.4291935E-1,1.5406814E0,0E0,0E0,0E0,0E0,0E0,0E0,0E0,0E0,0E0,0E0,0E0,0E0,0E0,0E0],"parents":[2147483647,0,0,1,1,2,2,3,3,4,4,5,5,6,6,8,8,9,9,10,10,11,11,12,12,13,13,14,14],"right_children":[2,4,6,8,10,12,14,-1,16,18,20,22,24,26,28,-1,-1,-1,-1,-1,-1,-1,-1,-1,-1,-1,-1,-1,-1],"split_conditions":[3.4238635E2,1E0,2.8511786E2,8.051765E1,1.2561032E2,3.0491168E0,5.6522327E2,-1.6510332E-2,5.559082E-1,2.3075574E2,2.8147766E2,5.347589E3,1.4530988E2,9.1613235E1,3.046318E0,-1.853284E-3,7.144863E-2,-1.5231367E-2,6.237069E-2,-4.8901543E-2,3.059813E-2,-8.0143556E-2,-2.8796356E-2,3.6013294E-2,-3.3091146E-2,8.6805046E-2,1.4479349E-2,-4.8671834E-2,4.037609E-2],"split_indices":[2,4,3,0,0,10,2,0,7,2,5,5,0,5,10,0,0,0,0,0,0,0,0,0,0,0,0,0,0],"split_type":[0,0,0,0,0,0,0,0,0,0,0,0,0,0,0,0,0,0,0,0,0,0,0,0,0,0,0,0,0],"sum_hessian":[7.474841E1,3.6957573E1,3.779084E1,1.7870623E1,1.908695E1,2.6906822E1,1.0884017E1,1.4519889E0,1.6418633E1,6.2001023E0,1.28868475E1,2.1101633E1,5.805188E0,5.790722E0,5.0932956E0,1.2827868E0,1.5135846E1,1.4993926E0,4.70071E0,5.9746413E0,6.912206E0,1.5405864E1,5.6957703E0,2.304597E0,3.5005915E0,4.7033477E0,1.0873742E0,3.596663E0,1.4966326E0],"tree_param":{"num_deleted":"0","num_feature":"11","num_nodes":"29","size_leaf_vector":"1"}},{"base_weights":[-3.0365082E-2,3.2494342E-1,-3.4280393E-1,-8.0228545E-2,5.8026403E-1,1.6099755E-1,-8.533232E-1,2.233857E-1,-4.6868837E-1,5.879456E-2,6.813935E-1,-1.8499614E-1,3.818542E-1,-2.4391457E-2,-8.121582E-2,-4.968247E-2,4.0621523E-2,-6.124019E-3,-6.337983E-2,2.8918045E-2,-2.9831942E-2,1.2634189E-3,6.483762E-2,1.692074E-2,-4.0717818E-2,4.316755E-2,-2.580166E-2],"categories":[],"categories_nodes":[],"categories_segments":[],"categories_sizes":[],"default_left":[1,1,1,1,0,0,0,0,0,0,0,0,0,0,0,0,0,0,0,0,0,0,0,0,0,0,0],"id":24,"left_children":[1,3,5,7,9,11,13,15,17,19,21,23,25,-1,-1,-1,-1,-1,-1,-1,-1,-1,-1,-1,-1,-1,-1],"loss_changes":[8.279378E0,3.6610763E0,1.0332078E1,1.8012996E0,1.0966692E0,1.6593952E0,3.22567E-1,1.7961358E0,5.7805085E-1,5.7733E-1,4.5760918E-1,9.602973E-1,9.884577E-1,0E0,0E0,0E0,0E0,0E0,0E0,0E0,0E0,0E0,0E0,0E0,0E0,0E0,0E0],"parents":[2147483647,0,0,1,1,2,2,3,3,4,4,5,5,6,6,7,7,8,8,9,9,10,10,11,11,12,12],"right_children":[2,4,6,8,10,12,14,16,18,20,22,24,26,-1,-1,-1,-1,-1,-1,-1,-1,-1,-1,-1,-1,-1,-1],"split_conditions":[1.664E2,1.6779587E2,2.2556707E1,5.2343906E1,8.9443794E1,9.185791E-1,1E0,1.9114236E2,3.9049063E2,1.082929E2,1.74323E2,2.8715228E2,6.8202344E2,-2.4391457E-2,-8.121582E-2,-4.968247E-2,4.0621523E-2,-6.124019E-3,-6.337983E-2,2.8918045E-2,-2.9831942E-2,1.2634189E-3,6.483762E-2,1.692074E-2,-4.0717818E-2,4.316755E-2,-2.580166E-2],"split_indices":[0,1,5,5,0,7,4,2,2,5,3,2,2,0,0,0,0,0,0,0,0,0,0,0,0,0,0],"split_type":[0,0,0,0,0,0,0,0,0,0,0,0,0,0,0,0,0,0,0,0,0,0,0,0,0,0,0],"sum_hessian":[7.257739E1,3.394022E1,3.8637173E1,1.3385055E1,2.0555164E1,1.9791119E1,1.8846052E1,7.751526E0,5.6335287E0,3.5956655E0,1.69595E1,7.7742934E0,1.2016826E1,1.9717969E0,1.6874256E1,1.4381526E0,6.3133736E0,2.5628972E0,3.0706315E0,2.2552788E0,1.3403866E0,1.0120572E0,1.5947442E1,3.37032E0,4.4039736E0,1.0729945E1,1.2868804E0],"tree_param":{"num_deleted":"0","num_feature":"11","num_nodes":"27","size_leaf_vector":"1"}},{"base_weights":[-2.1298865E-2,1.7010799E-1,-6.4234823E-1,4.150593E-1,-1.037837E-1,-8.542512E-2,-8.188536E-1,-1.2136103E-1,5.256277E-1,-7.064035E-1,2.595398E-1,2.989461E-2,-3.927703E-1,-7.7100635E-2,-1.7075252E-2,3.275308E-2,-4.7994856E-2,5.931139E-2,1.2467604E-2,-7.018174E-2,-2.3127008E-2,-6.2925504E-3,5.426619E-2,-7.100383E-3,-4.6563122E-2],"categories":[],"categories_nodes":[],"categories_segments":[],"categories_sizes":[],"default_left":[0,0,1,0,0,0,0,0,0,1,1,0,0,0,0,0,0,0,0,0,0,0,0,0,0],"id":25,"left_children":[1,3,5,7,9,11,13,15,17,19,21,-1,23,-1,-1,-1,-1,-1,-1,-1,-1,-1,-1,-1,-1],"loss_changes":[8.588227E0,3.7541192E0,1.6024785E0,1.807529E0,6.0761466E0,7.992502E-1,1.4208889E-1,1.360817E0,1.1770029E0,1.4241076E-1,2.0246577E0,0E0,9.449321E-2,0E0,0E0,0E0,0E0,0E0,0E0,0E0,0E0,0E0,0E0,0E0,0E0],"parents":[2147483647,0,0,1,1,2,2,3,3,4,4,5,5,6,6,7,7,8,8,9,9,10,10,12,12],"right_children":[2,4,6,8,10,12,14,16,18,20,22,-1,24,-1,-1,-1,-1,-1,-1,-1,-1,-1,-1,-1,-1],"split_conditions":[3E0,1.728922E2,2.954406E1,2.6116815E0,3.1225586E0,2.1895972E2,3.1079552E0,3.0714276E2,3.0771484E0,3.0567389E0,2.1897906E2,2.989461E-2,4.08122E2,-7.7100635E-2,-1.7075252E-2,3.275308E-2,-4.7994856E-2,5.931139E-2,1.2467604E-2,-7.018174E-2,-2.3127008E-2,-6.2925504E-3,5.426619E-2,-7.100383E-3,-4.6563122E-2],"split_indices":[4,0,5,10,6,0,10,2,6,10,1,0,0,0,0,0,0,0,0,0,0,0,0,0,0],"split_type":[0,0,0,0,0,0,0,0,0,0,0,0,0,0,0,0,0,0,0,0,0,0,0,0,0],"sum_hessian":[7.032781E1,5.4314293E1,1.6013521E1,2.8399855E1,2.5914436E1,4.210913E0,1.1802608E1,4.8367662E0,2.356309E1,9.392108E0,1.6522327E1,1.7510409E0,2.4598725E0,1.0792154E1,1.0104531E0,2.2741094E0,2.5626569E0,1.7002028E1,6.5610623E0,7.4417987E0,1.9503095E0,8.839031E0,7.683297E0,1.1630892E0,1.2967832E0],"tree_param":{"num_deleted":"0","num_feature":"11","num_nodes":"25","size_leaf_vector":"1"}},{"base_weights":[-5.4620184E-2,1.7096283E-1,-4.0962738E-1,4.5927033E-2,6.1119205E-1,9.9661954E-2,-7.73256E-2,2.4196255E-1,-2.8834602E-1,7.386991E-1,-2.0557757E-2,-6.0797002E-2,3.323839E-1,-5.2918075E-4,5.257521E-2,9.372473E-3,-5.265771E-2,7.151016E-2,1.5846796E-2,1.3600457E-3,5.1912457E-2],"categories":[],"categories_nodes":[],"categories_segments":[],"categories_sizes":[],"default_left":[1,0,0,0,0,0,0,0,0,0,0,0,0,0,0,0,0,0,0,0,0],"id":26,"left_children":[1,3,5,7,9,11,-1,13,15,17,-1,-1,19,-1,-1,-1,-1,-1,-1,-1,-1],"loss_changes":[5.6919165E0,2.373523E0,6.3977747E0,2.3672576E0,1.1932263E0,2.7180886E0,0E0,1.9239132E0,1.6235291E0,1.2861633E-1,0E0,0E0,8.67648E-1,0E0,0E0,0E0,0E0,0E0,0E0,0E0,0E0],"parents":[2147483647,0,0,1,1,2,2,3,3,4,4,5,5,7,7,8,8,9,9,12,12],"right_children":[2,4,6,8,10,12,-1,14,16,18,-1,-1,20,-1,-1,-1,-1,-1,-1,-1,-1],"split_conditions":[5.385837E1,2.7965967E2,1.4530988E2,3.2293823E2,8.4969006E2,1.3283249E2,-7.73256E-2,2.1897906E2,2.2512209E2,4.8439896E2,-2.0557757E-2,-6.0797002E-2,3.0408456E0,-5.2918075E-4,5.257521E-2,9.372473E-3,-5.265771E-2,7.151016E-2,1.5846796E-2,1.3600457E-3,5.1912457E-2],"split_indices":[5,3,0,2,2,1,0,1,0,0,0,0,10,0,0,0,0,0,0,0,0],"split_type":[0,0,0,0,0,0,0,0,0,0,0,0,0,0,0,0,0,0,0,0,0],"sum_hessian":[6.920021E1,4.2630096E1,2.6570112E1,3.4060432E1,8.569664E0,1.2822191E1,1.3747921E1,2.1643616E1,1.2416816E1,7.5441647E0,1.0254998E0,2.5212717E0,1.030092E1,1.3122494E1,8.521122E0,5.6254E0,6.7914157E0,6.487808E0,1.0563562E0,4.9445043E0,5.3564153E0],"tree_param":{"num_deleted":"0","num_feature":"11","num_nodes":"21","size_leaf_vector":"1"}},{"base_weights":[-7.1534147E-3,1.5850174E-1,-5.667597E-1,2.2177395E-1,-7.1083404E-2,2.597086E-4,-7.6017654E-1,4.802123E-1,4.6465132E-2,3.4928676E-1,-3.763674E-2,-7.503236E-2,-8.928953E-3,-3.6732566E-2,5.2556712E-2,-1.8813193E-2,3.5710827E-2,-6.5644654E-3,5.5520244E-2],"categories":[],"categories_nodes":[],"categories_segments":[],"categories_sizes":[],"default_left":[0,1,1,0,0,0,1,0,0,1,0,0,0,0,0,0,0,0,0],"id":27,"left_children":[1,3,5,7,-1,9,11,13,15,17,-1,-1,-1,-1,-1,-1,-1,-1,-1],"loss_changes":[6.4154496E0,3.3811982E0,1.7334638E0,2.2824655E0,0E0,8.7915325E-1,4.8993158E-1,2.1234846E0,2.8950272E0,4.1578424E-1,0E0,0E0,0E0,0E0,0E0,0E0,0E0,0E0,0E0],"parents":[2147483647,0,0,1,1,2,2,3,3,5,5,6,6,7,7,8,8,9,9],"right_children":[2,4,6,8,-1,10,12,14,16,18,-1,-1,-1,-1,-1,-1,-1,-1,-1],"split_conditions":[3E0,8.657308E-1,2.687345E1,1E0,-7.1083404E-2,4E0,3.0919342E0,7.5617874E1,4.8243585E2,2.933579E0,-3.763674E-2,-7.503236E-2,-8.928953E-3,-3.6732566E-2,5.2556712E-2,-1.8813193E-2,3.5710827E-2,-6.5644654E-3,5.5520244E-2],"split_indices":[4,8,5,4,0,4,10,0,5,10,0,0,0,0,0,0,0,0,0],"split_type":[0,0,0,0,0,0,0,0,0,0,0,0,0,0,0,0,0,0,0],"sum_hessian":[6.723628E1,5.243206E1,1.4804224E1,4.9870796E1,2.5612648E0,4.0194597E0,1.0784764E1,1.9453468E1,3.0417328E1,2.2816246E0,1.7378354E0,9.470119E0,1.3146449E0,1.7275736E0,1.7725895E1,1.7822285E1,1.2595042E1,1.167302E0,1.1143225E0],"tree_param":{"num_deleted":"0","num_feature":"11","num_nodes":"19","size_leaf_vector":"1"}},{"base_weights":[1.969281E-2,2.3177938E-1,-3.334251E-1,1.3941054E-1,6.9023883E-1,1.916054E-1,-7.6601636E-1,2.991988E-1,-1.936462E-1,7.255027E-2,4.4027134E-3,-4.721593E-2,3.6194658E-1,-3.3239472E-1,-7.7345386E-2,1.5885191E-2,7.244982E-2,3.1443488E-2,-3.7966833E-2,4.4905044E-2,-2.8184822E-2,-4.994075E-2,1.634864E-2],"categories":[],"categories_nodes":[],"categories_segments":[],"categories_sizes":[],"default_left":[1,0,0,0,1,0,0,1,0,0,0,0,0,1,0,0,0,0,0,0,0,0,0],"id":28,"left_children":[1,3,5,7,9,11,13,15,17,-1,-1,-1,19,21,-1,-1,-1,-1,-1,-1,-1,-1,-1],"loss_changes":[5.1967793E0,1.737324E0,6.0658293E0,2.0424745E0,4.8131895E-1,1.7237735E0,3.009796E-1,1.4462214E0,1.7208316E0,0E0,0E0,0E0,1.1503868E0,5.809361E-1,0E0,0E0,0E0,0E0,0E0,0E0,0E0,0E0,0E0],"parents":[2147483647,0,0,1,1,2,2,3,3,4,4,5,5,6,6,7,7,8,8,12,12,13,13],"right_children":[2,4,6,8,10,12,14,16,18,-1,-1,-1,20,22,-1,-1,-1,-1,-1,-1,-1,-1,-1],"split_conditions":[5.385837E1,3.0274036E2,1.3382341E2,3.4238635E2,4.0194073E2,1.299155E2,3.377306E2,2.841536E2,1.4530988E2,7.255027E-2,4.4027134E-3,-4.721593E-2,3E0,2.9944563E0,-7.7345386E-2,1.5885191E-2,7.244982E-2,3.1443488E-2,-3.7966833E-2,4.4905044E-2,-2.8184822E-2,-4.994075E-2,1.634864E-2],"split_indices":[5,3,0,2,0,1,2,1,0,0,0,0,4,10,0,0,0,0,0,0,0,0,0],"split_type":[0,0,0,0,0,0,0,0,0,0,0,0,0,0,0,0,0,0,0,0,0,0,0],"sum_hessian":[6.735881E1,4.2297863E1,2.5060947E1,3.6290302E1,6.0075607E0,1.1572557E1,1.3488391E1,2.4593102E1,1.1697199E1,4.870573E0,1.136988E0,1.8238902E0,9.748668E0,3.197872E0,1.0290519E1,2.0877579E1,3.715523E0,3.3041217E0,8.393077E0,8.321046E0,1.4276212E0,2.1763709E0,1.0215012E0],"tree_param":{"num_deleted":"0","num_feature":"11","num_nodes":"23","size_leaf_vector":"1"}},{"base_weights":[-3.9255254E-2,2.8650704E-1,-2.9110277E-1,1.1774779E-1,8.6902875E-1,-7.208367E-1,9.835651E-2,-2.711274E-1,3.53845E-1,9.983863E-3,9.093758E-2,7.2939076E-2,-7.678983E-2,-2.4967998E-2,4.2371905E-1,8.647076E-3,-5.758049E-2,-1.8168429E-2,4.053772E-2,4.70418E-2,-3.080927E-2,3.2774586E-2,-2.7935443E-2,5.1757585E-2,2.867186E-3],"categories":[],"categories_nodes":[],"categories_segments":[],"categories_sizes":[],"default_left":[1,0,0,1,1,0,0,0,0,0,0,0,0,0,0,0,0,0,0,0,0,0,0,0,0],"id":29,"left_children":[1,3,5,7,9,11,13,15,17,-1,-1,19,-1,21,23,-1,-1,-1,-1,-1,-1,-1,-1,-1,-1],"loss_changes":[5.5111756E0,2.782955E0,6.398608E0,2.2915282E0,5.7777786E-1,1.9636793E0,8.4170735E-1,1.3610716E0,9.1278017E-1,0E0,0E0,8.340364E-1,0E0,1.886178E0,3.226676E-1,0E0,0E0,0E0,0E0,0E0,0E0,0E0,0E0,0E0,0E0],"parents":[2147483647,0,0,1,1,2,2,3,3,4,4,5,5,6,6,7,7,8,8,11,11,13,13,14,14],"right_children":[2,4,6,8,10,12,14,16,18,-1,-1,20,-1,22,24,-1,-1,-1,-1,-1,-1,-1,-1,-1,-1],"split_conditions":[1.4329228E2,2.7965967E2,3.1376953E0,1.6217882E2,2.5342429E0,1E0,2.6751355E2,3.0449734E2,8.051765E1,9.983863E-3,9.093758E-2,2.5166647E2,-7.678983E-2,2.6569345E2,2.6712042E2,8.647076E-3,-5.758049E-2,-1.8168429E-2,4.053772E-2,4.70418E-2,-3.080927E-2,3.2774586E-2,-2.7935443E-2,5.1757585E-2,2.867186E-3],"split_indices":[0,3,6,1,10,4,3,2,0,0,0,2,0,2,1,0,0,0,0,0,0,0,0,0,0],"split_type":[0,0,0,0,0,0,0,0,0,0,0,0,0,0,0,0,0,0,0,0,0,0,0,0,0],"sum_hessian":[6.515812E1,2.8350023E1,3.6808098E1,2.2913897E1,5.436127E0,1.7094719E1,1.9713379E1,8.600183E0,1.4313713E1,1.1350124E0,4.3011146E0,2.5076735E0,1.4587045E1,1.4964527E1,4.7488513E0,4.6789823E0,3.9212003E0,1.9577726E0,1.2355941E1,1.0796671E0,1.4280063E0,6.2152395E0,8.749288E0,3.0883403E0,1.6605109E0],"tree_param":{"num_deleted":"0","num_feature":"11","num_nodes":"25","size_leaf_vector":"1"}},{"base_weights":[2.1926925E-2,1.7918216E-1,-5.8176965E-1,2.3040293E-1,-5.82062E-2,-1.208669E-1,-7.5767547E-1,1.05013214E-1,5.6735516E-1,-3.950323E-2,1.8479806E-1,-1.8966531E-2,-7.487546E-2,2.6889758E-2,-2.6184995E-2,6.449161E-2,-1.474464E-2,-1.16494475E-2,3.5194986E-2],"categories":[],"categories_nodes":[],"categories_segments":[],"categories_sizes":[],"default_left":[0,1,1,0,0,1,0,0,0,0,0,0,0,0,0,0,0,0,0],"id":30,"left_children":[1,3,5,7,-1,9,11,13,15,-1,17,-1,-1,-1,-1,-1,-1,-1,-1],"loss_changes":[6.1383505E0,2.3145633E0,9.924569E-1,2.0080743E0,0E0,5.5585206E-1,2.1008825E-1,2.9174116E0,1.5407014E0,0E0,2.576207E-1,0E0,0E0,0E0,0E0,0E0,0E0,0E0,0E0],"parents":[2147483647,0,0,1,1,2,2,3,3,5,5,6,6,7,7,8,8,10,10],"right_children":[2,4,6,8,-1,10,12,14,16,-1,18,-1,-1,-1,-1,-1,-1,-1,-1],"split_conditions":[3E0,8.657308E-1,3.2810898E1,2.6223248E2,-5.82062E-2,2.6986353E0,1.152057E2,3.1283728E2,6.4848816E2,-3.950323E-2,1.997136E2,-1.8966531E-2,-7.487546E-2,2.6889758E-2,-2.6184995E-2,6.449161E-2,-1.474464E-2,-1.16494475E-2,3.5194986E-2],"split_indices":[4,8,5,3,0,10,0,2,2,0,1,0,0,0,0,0,0,0,0],"split_type":[0,0,0,0,0,0,0,0,0,0,0,0,0,0,0,0,0,0,0],"sum_hessian":[6.2560787E1,5.0190098E1,1.23706875E1,4.793816E1,2.2519376E0,3.8831902E0,8.487497E0,3.5892994E1,1.2045169E1,1.6893648E0,2.1938252E0,1.473598E0,7.0138993E0,2.4264565E1,1.1628428E1,1.0020247E1,2.024922E0,1.0169414E0,1.1768839E0],"tree_param":{"num_deleted":"0","num_feature":"11","num_nodes":"19","size_leaf_vector":"1"}},{"base_weights":[-3.9866213E-3,-4.450409E-1,1.7913672E-1,1.2000367E-1,-7.116856E-1,4.1852075E-1,-5.0604362E-2,-2.9415268E-1,4.5127705E-1,-7.874146E-2,-2.7724946E-1,5.377794E-1,-2.5891872E-2,1.9895646E-1,-5.1764137E-1,2.265743E-2,-5.4429926E-2,6.771893E-2,8.909096E-5,8.040503E-3,-3.998143E-2,5.56057E-2,8.291143E-3,-6.468722E-2,2.7081383E-2,-7.6173604E-3,3.1029128E-2,1.2576977E-2,-6.200033E-2],"categories":[],"categories_nodes":[],"categories_segments":[],"categories_sizes":[],"default_left":[1,0,0,0,0,0,1,0,0,0,0,0,0,0,0,0,0,0,0,0,0,0,0,0,0,0,0,0,0],"id":31,"left_children":[1,3,5,7,9,11,13,15,17,-1,19,21,23,25,27,-1,-1,-1,-1,-1,-1,-1,-1,-1,-1,-1,-1,-1,-1],"loss_changes":[5.2515163E0,2.959103E0,2.548808E0,1.0891204E0,6.8651485E-1,1.2125459E0,2.9404356E0,7.802087E-1,5.779557E-1,0E0,3.4835133E-1,5.809159E-1,1.5156966E0,7.151429E-1,1.0819788E0,0E0,0E0,0E0,0E0,0E0,0E0,0E0,0E0,0E0,0E0,0E0,0E0,0E0,0E0],"parents":[2147483647,0,0,1,1,2,2,3,3,4,4,5,5,6,6,7,7,8,8,10,10,11,11,12,12,13,13,14,14],"right_children":[2,4,6,8,10,12,14,16,18,-1,20,22,24,26,28,-1,-1,-1,-1,-1,-1,-1,-1,-1,-1,-1,-1,-1,-1],"split_conditions":[2.6750486E0,3.2048157E2,1.469069E2,3.3463467E2,5.347589E3,3.0771484E0,2.2556707E1,1.3033487E2,1.7551959E0,-7.874146E-2,4.383866E2,5.220713E2,9.808316E1,1.9177461E2,2.574165E2,2.265743E-2,-5.4429926E-2,6.771893E-2,8.909096E-5,8.040503E-3,-3.998143E-2,5.56057E-2,8.291143E-3,-6.468722E-2,2.7081383E-2,-7.6173604E-3,3.1029128E-2,1.2576977E-2,-6.200033E-2],"split_indices":[10,2,0,5,5,6,5,0,10,0,2,2,0,1,2,0,0,0,0,0,0,0,0,0,0,0,0,0,0],"split_type":[0,0,0,0,0,0,0,0,0,0,0,0,0,0,0,0,0,0,0,0,0,0,0,0,0,0,0,0,0],"sum_hessian":[6.3033226E1,1.8073282E1,4.4959946E1,5.9707227E0,1.2102559E1,2.1615486E1,2.334446E1,2.703222E0,3.2675004E0,8.060362E0,4.042197E0,1.6876553E1,4.738933E0,1.5588669E1,7.7557898E0,1.0490763E0,1.6541458E0,1.555898E0,1.7116024E0,1.4105757E0,2.6316216E0,1.3978892E1,2.8976605E0,1.1344215E0,3.6045115E0,5.4358497E0,1.015282E1,1.6408821E0,6.1149073E0],"tree_param":{"num_deleted":"0","num_feature":"11","num_nodes":"29","size_leaf_vector":"1"}},{"base_weights":[-2.6451183E-2,1.7727515E-1,-2.6954523E-1,-1.14032306E-1,4.1100013E-1,-7.436326E-1,8.784577E-2,-2.8791416E-1,3.4299248E-1,-2.9013505E-2,4.779681E-1,-1.7729092E-2,-7.1884714E-2,-1.08058184E-1,3.8031027E-1,2.2940231E-2,-3.842787E-2,5.7749014E-2,-1.8861929E-2,5.5590395E-2,9.426616E-3,-3.1284418E-2,2.2395732E-2,4.3046005E-2,-7.450403E-3],"categories":[],"categories_nodes":[],"categories_segments":[],"categories_sizes":[],"default_left":[1,0,0,1,0,0,0,0,0,0,1,0,0,0,0,0,0,0,0,0,0,0,0,0,0],"id":32,"left_children":[1,3,5,7,9,11,13,15,17,-1,19,-1,-1,21,23,-1,-1,-1,-1,-1,-1,-1,-1,-1,-1],"loss_changes":[3.0957906E0,2.3677182E0,4.887112E0,1.3668393E0,1.0936053E0,2.1417904E-1,1.0220095E0,1.0224047E0,9.355816E-1,0E0,8.7030315E-1,0E0,0E0,1.0296243E0,3.6124182E-1,0E0,0E0,0E0,0E0,0E0,0E0,0E0,0E0,0E0,0E0],"parents":[2147483647,0,0,1,1,2,2,3,3,4,4,5,5,6,6,7,7,8,8,10,10,13,13,14,14],"right_children":[2,4,6,8,10,12,14,16,18,-1,20,-1,-1,22,24,-1,-1,-1,-1,-1,-1,-1,-1,-1,-1],"split_conditions":[1.944969E2,2.0899469E2,3.1376953E0,2.2592993E2,9.136573E1,1E0,2.4175093E2,3.9605858E1,2.8715228E2,-2.9013505E-2,2.4318848E0,-1.7729092E-2,-7.1884714E-2,9.857178E-1,6.153338E2,2.2940231E-2,-3.842787E-2,5.7749014E-2,-1.8861929E-2,5.5590395E-2,9.426616E-3,-3.1284418E-2,2.2395732E-2,4.3046005E-2,-7.450403E-3],"split_indices":[0,3,6,1,1,4,1,5,2,0,6,0,0,7,0,0,0,0,0,0,0,0,0,0,0],"split_type":[0,0,0,0,0,0,0,0,0,0,0,0,0,0,0,0,0,0,0,0,0,0,0,0,0],"sum_hessian":[6.0545246E1,3.308714E1,2.7458109E1,1.4957139E1,1.813E1,1.1337684E1,1.6120424E1,1.11029005E1,3.8542383E0,1.1978965E0,1.6932102E1,1.4568483E0,9.880836E0,1.003148E1,6.0889454E0,2.094488E0,9.008412E0,2.397286E0,1.4569522E0,1.1843878E1,5.0882244E0,6.018191E0,4.0132885E0,4.998561E0,1.0903841E0],"tree_param":{"num_deleted":"0","num_feature":"11","num_nodes":"25","size_leaf_vector":"1"}},{"base_weights":[-2.7225052E-3,3.815049E-1,-1.9610307E-1,5.806526E-2,5.8173645E-1,1.632678E-1,-3.7943432E-1,4.2074248E-1,-8.026725E-2,-1.7785687E-2,6.6768384E-1,4.7793278E-1,-1.3948384E-1,-7.305025E-1,7.4353954E-3,-1.4351095E-2,4.9686737E-2,6.512779E-2,6.577974E-3,-7.757609E-3,5.527495E-2,-3.3441234E-2,3.45712E-2,-6.967279E-2,-1.0014354E-2,-1.3905755E-2,2.5878238E-2],"categories":[],"categories_nodes":[],"categories_segments":[],"categories_sizes":[],"default_left":[0,0,0,0,0,1,0,0,0,0,0,0,0,0,1,0,0,0,0,0,0,0,0,0,0,0,0],"id":33,"left_children":[1,3,5,7,9,11,13,15,-1,-1,17,19,21,23,25,-1,-1,-1,-1,-1,-1,-1,-1,-1,-1,-1,-1],"loss_changes":[4.5960855E0,1.3075731E0,2.7722864E0,3.486307E0,9.8139906E-1,1.4571654E0,3.7461193E0,6.377777E-1,0E0,0E0,3.3474445E-1,6.203551E-1,1.1407816E0,3.0432224E-1,6.836841E-1,0E0,0E0,0E0,0E0,0E0,0E0,0E0,0E0,0E0,0E0,0E0,0E0],"parents":[2147483647,0,0,1,1,2,2,3,3,4,4,5,5,6,6,7,7,10,10,11,11,12,12,13,13,14,14],"right_children":[2,4,6,8,10,12,14,16,-1,-1,18,20,22,24,26,-1,-1,-1,-1,-1,-1,-1,-1,-1,-1,-1,-1],"split_conditions":[1E0,2.0101074E2,1.3217708E2,2.5166647E2,8.524731E1,5.2343906E1,5.347589E3,9.550544E1,-8.026725E-2,-1.7785687E-2,4.7002902E2,7.878418E-1,2.3020201E2,3.3712152E2,3.0437043E0,-1.4351095E-2,4.9686737E-2,6.512779E-2,6.577974E-3,-7.757609E-3,5.527495E-2,-3.3441234E-2,3.45712E-2,-6.967279E-2,-1.0014354E-2,-1.3905755E-2,2.5878238E-2],"split_indices":[4,3,0,2,0,5,5,0,0,0,2,7,1,3,10,0,0,0,0,0,0,0,0,0,0,0,0],"split_type":[0,0,0,0,0,0,0,0,0,0,0,0,0,0,0,0,0,0,0,0,0,0,0,0,0,0,0],"sum_hessian":[5.9849834E1,1.9711761E1,4.0138073E1,8.030255E0,1.1681506E1,1.3596089E1,2.6541985E1,6.214616E0,1.8156391E0,1.0312276E0,1.0650279E1,6.3831406E0,7.212949E0,1.3449177E1,1.3092808E1,1.1075487E0,5.107067E0,9.535815E0,1.114463E0,1.3130841E0,5.070057E0,5.19893E0,2.0140188E0,1.2330064E1,1.1191126E0,8.58035E0,4.512458E0],"tree_param":{"num_deleted":"0","num_feature":"11","num_nodes":"27","size_leaf_vector":"1"}},{"base_weights":[-1.505461E-2,1.5707432E-1,-3.3748016E-1,3.3772644E-1,-1.5821818E-1,3.585624E-3,-7.390654E-1,-3.0129877E-1,4.2377165E-1,1.1396475E-1,-3.6826602E-1,-3.3977968E-1,3.409682E-1,-7.3493905E-2,-1.6534302E-2,-5.7499245E-2,2.5619982E-2,4.3501552E-2,-3.910716E-2,-4.8328087E-2,3.0431189E-2,-4.9320154E-2,2.1470305E-2,-4.547045E-2,2.595501E-2,5.524292E-2,-1.8261146E-2],"categories":[],"categories_nodes":[],"categories_segments":[],"categories_sizes":[],"default_left":[1,0,0,0,0,0,0,0,1,0,0,0,0,0,0,0,0,0,0,0,0,0,0,0,0,0,0],"id":34,"left_children":[1,3,5,7,9,11,13,15,17,19,21,23,25,-1,-1,-1,-1,-1,-1,-1,-1,-1,-1,-1,-1,-1,-1],"loss_changes":[3.4096844E0,2.3382413E0,2.9293966E0,1.5474491E0,9.1627735E-1,1.5697106E0,2.7273846E-1,9.0361524E-1,1.3949728E0,1.2649585E0,1.0979388E0,8.4417844E-1,1.13794E0,0E0,0E0,0E0,0E0,0E0,0E0,0E0,0E0,0E0,0E0,0E0,0E0,0E0,0E0],"parents":[2147483647,0,0,1,1,2,2,3,3,4,4,5,5,6,6,7,7,8,8,9,9,10,10,11,11,12,12],"right_children":[2,4,6,8,10,12,14,16,18,20,22,24,26,-1,-1,-1,-1,-1,-1,-1,-1,-1,-1,-1,-1,-1,-1],"split_conditions":[5.2343906E1,2.653579E2,1.4530988E2,1.9114236E2,3.2048157E2,2.1939072E2,2.8648682E2,1.7927565E2,7.1684104E-1,3.102759E2,3.295523E2,2.5451361E2,4.9280603E2,-7.3493905E-2,-1.6534302E-2,-5.7499245E-2,2.5619982E-2,4.3501552E-2,-3.910716E-2,-4.8328087E-2,3.0431189E-2,-4.9320154E-2,2.1470305E-2,-4.547045E-2,2.595501E-2,5.524292E-2,-1.8261146E-2],"split_indices":[5,0,0,2,2,3,5,1,8,0,3,1,2,0,0,0,0,0,0,0,0,0,0,0,0,0,0],"split_type":[0,0,0,0,0,0,0,0,0,0,0,0,0,0,0,0,0,0,0,0,0,0,0,0,0,0,0],"sum_hessian":[5.948197E1,3.9113705E1,2.0368265E1,2.4820965E1,1.4292741E1,1.1549966E1,8.818299E0,2.648669E0,2.2172297E1,6.424813E0,7.867928E0,5.720709E0,5.8292575E0,7.325196E0,1.4931039E0,1.6232121E0,1.0254568E0,2.1141594E1,1.0307031E0,1.2882643E0,5.1365485E0,6.144826E0,1.7231021E0,4.683008E0,1.0377005E0,3.7962186E0,2.0330386E0],"tree_param":{"num_deleted":"0","num_feature":"11","num_nodes":"27","size_leaf_vector":"1"}},{"base_weights":[2.1091852E-2,2.7674663E-1,-1.9965489E-1,1.5173927E-1,7.9683805E-1,-6.824475E-1,1.203046E-1,3.013847E-1,-1.7647052E-1,8.67503E-2,7.9522785E-3,-9.175689E-3,-6.962025E-2,-1.2647103E-1,2.95659E-1,5.5374715E-2,3.7249355E-3,-5.4958493E-2,8.812583E-3,9.238558E-3,-4.0495705E-2,4.3386973E-2,6.096805E-3],"categories":[],"categories_nodes":[],"categories_segments":[],"categories_sizes":[],"default_left":[0,0,0,0,0,0,1,0,0,0,0,0,0,0,0,0,0,0,0,0,0,0,0],"id":35,"left_children":[1,3,5,7,9,11,13,15,17,-1,-1,-1,-1,19,21,-1,-1,-1,-1,-1,-1,-1,-1],"loss_changes":[3.3627658E0,1.6719251E0,5.0301957E0,1.205781E0,5.194323E-1,6.043105E-1,9.078241E-1,1.320086E0,1.010446E0,0E0,0E0,0E0,0E0,7.1739954E-1,4.7968888E-1,0E0,0E0,0E0,0E0,0E0,0E0,0E0,0E0],"parents":[2147483647,0,0,1,1,2,2,3,3,4,4,5,5,6,6,7,7,8,8,13,13,14,14],"right_children":[2,4,6,8,10,12,14,16,18,-1,-1,-1,-1,20,22,-1,-1,-1,-1,-1,-1,-1,-1],"split_conditions":[1.580029E2,3.0020862E2,5.347589E3,3.4238635E2,6.1709467E2,1E0,1.89548E2,2.4318848E0,1.4979982E2,8.67503E-2,7.9522785E-3,-9.175689E-3,-6.962025E-2,3.0491168E0,3.2293823E2,5.5374715E-2,3.7249355E-3,-5.4958493E-2,8.812583E-3,9.238558E-3,-4.0495705E-2,4.3386973E-2,6.096805E-3],"split_indices":[0,3,5,2,2,4,1,6,1,0,0,0,0,10,2,0,0,0,0,0,0,0,0],"split_type":[0,0,0,0,0,0,0,0,0,0,0,0,0,0,0,0,0,0,0,0,0,0,0],"sum_hessian":[5.76075E1,2.6575624E1,3.1031874E1,2.2467232E1,4.1083913E0,1.1917072E1,1.9114801E1,1.5487516E1,6.979716E0,3.032777E0,1.0756145E0,1.9041481E0,1.0012924E1,8.056163E0,1.105864E1,6.397472E0,9.090045E0,2.2282836E0,4.751432E0,5.1155143E0,2.9406483E0,5.469698E0,5.5889416E0],"tree_param":{"num_deleted":"0","num_feature":"11","num_nodes":"23","size_leaf_vector":"1"}},{"base_weights":[2.348383E-2,-2.05711E-1,2.1716937E-1,1.0167894E-1,-5.5125064E-1,-2.2648758E-1,3.3343664E-1,3.498989E-1,-2.2926252E-1,2.3747161E-2,-6.6728604E-1,1.9172102E-2,-3.5978726E-1,-1.3580103E-1,3.9506382E-1,-2.9532956E-3,5.136013E-2,-3.3531785E-2,2.5041169E-2,-6.639859E-2,-6.380437E-3,-4.7351673E-2,6.816692E-3,1.9333355E-2,-3.1296175E-2,-9.910366E-3,3.8917094E-2],"categories":[],"categories_nodes":[],"categories_segments":[],"categories_sizes":[],"default_left":[1,1,0,0,0,0,0,0,0,0,0,0,0,0,0,0,0,0,0,0,0,0,0,0,0,0,0],"id":36,"left_children":[1,3,5,7,9,11,13,15,17,-1,19,-1,21,23,25,-1,-1,-1,-1,-1,-1,-1,-1,-1,-1,-1,-1],"loss_changes":[2.6832886E0,3.0022159E0,1.7623622E0,1.3554106E0,1.4258866E0,5.093611E-1,8.146429E-1,8.016372E-1,6.3149095E-1,0E0,4.4580603E-1,0E0,4.7735894E-1,3.5700327E-1,4.9131608E-1,0E0,0E0,0E0,0E0,0E0,0E0,0E0,0E0,0E0,0E0,0E0,0E0],"parents":[2147483647,0,0,1,1,2,2,3,3,4,4,5,5,6,6,7,7,8,8,10,10,12,12,13,13,14,14],"right_children":[2,4,6,8,10,12,14,16,18,-1,20,-1,22,24,26,-1,-1,-1,-1,-1,-1,-1,-1,-1,-1,-1,-1],"split_conditions":[2.9501429E0,3.3675205E1,7.380371E-1,3.531095E2,9.270575E1,4.9468174E1,1.4602481E2,1.9338153E2,3.4560086E2,2.3747161E-2,3.0806058E2,1.9172102E-2,2.5051366E2,1.1873405E2,7.5617874E1,-2.9532956E-3,5.136013E-2,-3.3531785E-2,2.5041169E-2,-6.639859E-2,-6.380437E-3,-4.7351673E-2,6.816692E-3,1.9333355E-2,-3.1296175E-2,-9.910366E-3,3.8917094E-2],"split_indices":[10,5,7,2,0,5,1,3,3,0,3,0,1,0,0,0,0,0,0,0,0,0,0,0,0,0,0],"split_type":[0,0,0,0,0,0,0,0,0,0,0,0,0,0,0,0,0,0,0,0,0,0,0,0,0,0,0],"sum_hessian":[5.843932E1,2.6737646E1,3.1701674E1,1.4523431E1,1.2214216E1,6.3859468E0,2.5315727E1,8.266171E0,6.257259E0,1.363334E0,1.0850883E1,1.3469042E0,5.0390425E0,2.7991362E0,2.251659E1,3.3354256E0,4.930746E0,5.086683E0,1.1705761E0,9.492147E0,1.3587353E0,3.495841E0,1.5432014E0,1.0494207E0,1.7497156E0,1.4159471E0,2.1100643E1],"tree_param":{"num_deleted":"0","num_feature":"11","num_nodes":"27","size_leaf_vector":"1"}},{"base_weights":[4.055555E-2,1.0829505E-1,-5.517535E-1,1.5318085E-1,-6.049019E-1,-8.34632E-3,-6.486888E-2,8.003057E-2,6.072235E-1,-6.620571E-2,-1.3041972E-2,2.7553802E-2,-4.557712E-3,6.904001E-2,-1.43440105E-2],"categories":[],"categories_nodes":[],"categories_segments":[],"categories_sizes":[],"default_left":[0,1,1,0,1,0,0,0,0,0,0,0,0,0,0],"id":37,"left_children":[1,3,5,7,9,-1,-1,11,13,-1,-1,-1,-1,-1,-1],"loss_changes":[2.458685E0,1.8370061E0,4.2192233E-1,1.6805345E0,9.954476E-2,0E0,0E0,1.3743927E0,9.890671E-1,0E0,0E0,0E0,0E0,0E0,0E0],"parents":[2147483647,0,0,1,1,2,2,3,3,4,4,7,7,8,8],"right_children":[2,4,6,8,10,-1,-1,12,14,-1,-1,-1,-1,-1,-1],"split_conditions":[4E0,1.0633267E0,3.2810898E1,3.1616043E2,2.1308594E0,-8.34632E-3,-6.486888E-2,1.27429886E2,8.155931E2,-6.620571E-2,-1.3041972E-2,2.7553802E-2,-4.557712E-3,6.904001E-2,-1.43440105E-2],"split_indices":[4,8,5,3,6,0,0,0,2,0,0,0,0,0,0],"split_type":[0,0,0,0,0,0,0,0,0,0,0,0,0,0,0],"sum_hessian":[5.8789883E1,5.3489693E1,5.3001914E0,5.1061314E1,2.4283779E0,1.8431386E0,3.4570527E0,4.4989388E1,6.0719256E0,1.424399E0,1.0039788E0,1.5985004E1,2.9004383E1,5.023521E0,1.0484048E0],"tree_param":{"num_deleted":"0","num_feature":"11","num_nodes":"15","size_leaf_vector":"1"}},{"base_weights":[4.7345616E-2,1.2782802E-1,-6.5693265E-1,1.7661215E-1,-6.315567E-2,-2.2474268E-2,-6.891508E-2,3.423806E-1,-4.9248923E-2,-3.416321E-2,3.5571255E-2,-5.4547783E-2,1.9610103E-2],"categories":[],"categories_nodes":[],"categories_segments":[],"categories_sizes":[],"default_left":[0,1,1,1,0,0,0,0,0,0,0,0,0],"id":38,"left_children":[1,3,5,7,-1,-1,-1,9,11,-1,-1,-1,-1],"loss_changes":[3.3367229E0,2.2420025E0,7.673192E-2,1.8974959E0,0E0,0E0,0E0,1.2602723E0,3.4247718E0,0E0,0E0,0E0,0E0],"parents":[2147483647,0,0,1,1,2,2,3,3,7,7,8,8],"right_children":[2,4,6,8,-1,-1,-1,10,12,-1,-1,-1,-1],"split_conditions":[4E0,1.0088737E0,2.954406E1,1.8408136E2,-6.315567E-2,-2.2474268E-2,-6.891508E-2,8.625897E1,3.1225586E0,-3.416321E-2,3.5571255E-2,-5.4547783E-2,1.9610103E-2],"split_indices":[4,8,5,0,0,0,0,1,6,0,0,0,0],"split_type":[0,0,0,0,0,0,0,0,0,0,0,0,0],"sum_hessian":[5.638591E1,5.133772E1,5.0481925E0,4.9229744E1,2.1079724E0,1.7590766E0,3.289116E0,2.8094315E1,2.1135431E1,1.4947891E0,2.6599525E1,6.4408994E0,1.4694531E1],"tree_param":{"num_deleted":"0","num_feature":"11","num_nodes":"13","size_leaf_vector":"1"}},{"base_weights":[-4.1566238E-2,-1.0035003E-1,5.408992E-1,7.098472E-2,-3.4211138E-1,6.465311E-2,-4.240596E-3,-3.7257027E-2,5.7823926E-2,-6.077554E-1,-5.4248013E-3,-2.3908386E-2,1.5796674E-2,-2.5573902E-2,-7.379951E-2,2.2955123E-2,-2.4215257E-2],"categories":[],"categories_nodes":[],"categories_segments":[],"categories_sizes":[],"default_left":[0,0,0,1,1,0,0,0,0,1,0,0,0,0,0,0,0],"id":39,"left_children":[1,3,5,7,9,-1,-1,11,-1,13,15,-1,-1,-1,-1,-1,-1],"loss_changes":[2.0272396E0,2.2272596E0,6.014086E-1,2.000593E0,1.9849367E0,0E0,0E0,1.3981053E0,0E0,6.198063E-1,8.1117845E-1,0E0,0E0,0E0,0E0,0E0,0E0],"parents":[2147483647,0,0,1,1,2,2,3,3,4,4,7,7,9,9,10,10],"right_children":[2,4,6,8,10,-1,-1,12,-1,14,16,-1,-1,-1,-1,-1,-1],"split_conditions":[3.5986377E2,3.4238635E2,8.4969006E2,2.841536E2,2.9501429E0,6.465311E-2,-4.240596E-3,9.511719E-1,5.7823926E-2,3.3675205E1,1.7602866E2,-2.3908386E-2,1.5796674E-2,-2.5573902E-2,-7.379951E-2,2.2955123E-2,-2.4215257E-2],"split_indices":[3,2,2,1,10,0,0,7,0,5,0,0,0,0,0,0,0],"split_type":[0,0,0,0,0,0,0,0,0,0,0,0,0,0,0,0,0],"sum_hessian":[5.6622303E1,5.2183533E1,4.4387703E0,3.0953423E1,2.123011E1,3.2394092E0,1.1993612E0,2.681039E1,4.143033E0,1.14170265E1,9.813085E0,1.2810842E1,1.3999549E1,5.4485164E0,5.96851E0,4.952413E0,4.8606715E0],"tree_param":{"num_deleted":"0","num_feature":"11","num_nodes":"17","size_leaf_vector":"1"}},{"base_weights":[2.7113337E-2,9.179021E-2,-5.65183E-1,3.6997672E-2,6.1497283E-1,-1.3743932E-2,-6.154261E-2,1.4718916E-1,-2.4650998E-1,7.214481E-2,9.670974E-3,4.7395467E-3,5.5617575E-2,2.7846346E-2,-3.657104E-2],"categories":[],"categories_nodes":[],"categories_segments":[],"categories_sizes":[],"default_left":[0,0,0,0,0,0,0,1,0,0,0,0,0,0,0],"id":40,"left_children":[1,3,5,7,9,-1,-1,11,13,-1,-1,-1,-1,-1,-1],"loss_changes":[2.207627E0,1.4562831E0,1.7347991E-1,1.5285423E0,3.711003E-1,0E0,0E0,1.5260966E0,1.3468825E0,0E0,0E0,0E0,0E0,0E0,0E0],"parents":[2147483647,0,0,1,1,2,2,3,3,4,4,7,7,8,8],"right_children":[2,4,6,8,10,-1,-1,12,14,-1,-1,-1,-1,-1,-1],"split_conditions":[4E0,3.5986377E2,1.4329228E2,3.9521674E2,6.28827E2,-1.3743932E-2,-6.154261E-2,2.841536E2,1.1346599E2,7.214481E-2,9.670974E-3,4.7395467E-3,5.5617575E-2,2.7846346E-2,-3.657104E-2],"split_indices":[4,3,0,2,2,0,0,1,0,0,0,0,0,0,0],"split_type":[0,0,0,0,0,0,0,0,0,0,0,0,0,0,0],"sum_hessian":[5.52743E1,5.0594563E1,4.6797385E0,4.6767365E1,3.8271956E0,1.5561435E0,3.1235948E0,3.4024014E1,1.2743352E1,2.3745143E0,1.4526814E0,2.926069E1,4.7633224E0,2.6367679E0,1.0106584E1],"tree_param":{"num_deleted":"0","num_feature":"11","num_nodes":"15","size_leaf_vector":"1"}},{"base_weights":[1.5899516E-3,-2.155056E-1,1.6207366E-1,7.161117E-2,-5.5185866E-1,-4.566862E-1,2.4367954E-1,3.6833185E-1,-1.4242378E-1,8.844491E-3,-7.027658E-1,-6.50593E-2,6.960933E-4,3.160472E-1,-3.3477363E-1,-2.246206E-2,5.0730325E-2,1.1404301E-2,-3.4898736E-2,-6.8757445E-2,-2.2552144E-2,3.19349E-2,-2.8866189E-2,-2.7032592E-3,-4.244747E-2],"categories":[],"categories_nodes":[],"categories_segments":[],"categories_sizes":[],"default_left":[1,1,0,0,0,0,1,0,0,0,0,0,0,1,0,0,0,0,0,0,0,0,0,0,0],"id":41,"left_children":[1,3,5,7,9,11,13,15,17,-1,19,-1,-1,21,23,-1,-1,-1,-1,-1,-1,-1,-1,-1,-1],"loss_changes":[1.9619151E0,2.3512225E0,1.7458752E0,9.288182E-1,1.1618447E0,5.1491284E-1,1.330324E0,8.723035E-1,6.260848E-1,0E0,6.2155724E-2,0E0,0E0,7.6862955E-1,1.4174837E-1,0E0,0E0,0E0,0E0,0E0,0E0,0E0,0E0,0E0,0E0],"parents":[2147483647,0,0,1,1,2,2,3,3,4,4,5,5,6,6,7,7,8,8,10,10,13,13,14,14],"right_children":[2,4,6,8,10,12,14,16,18,-1,20,-1,-1,22,24,-1,-1,-1,-1,-1,-1,-1,-1,-1,-1],"split_conditions":[2.933579E0,3.3675205E1,8.524731E1,1.8996243E2,1E0,2.766018E2,2.8569336E0,1.84349E2,3.5048505E2,8.844491E-3,2.732253E2,-6.50593E-2,6.960933E-4,7.828783E-1,1.22068306E2,-2.246206E-2,5.0730325E-2,1.1404301E-2,-3.4898736E-2,-6.8757445E-2,-2.2552144E-2,3.19349E-2,-2.8866189E-2,-2.7032592E-3,-4.244747E-2],"split_indices":[10,5,0,0,4,2,6,3,2,0,3,0,0,8,0,0,0,0,0,0,0,0,0,0,0],"split_type":[0,0,0,0,0,0,0,0,0,0,0,0,0,0,0,0,0,0,0,0,0,0,0,0,0],"sum_hessian":[5.430915E1,2.2937468E1,3.1371683E1,1.2799063E1,1.0138405E1,3.1198466E0,2.8251837E1,5.0614223E0,7.7376404E0,1.9756782E0,8.162727E0,1.6293942E0,1.4904525E0,2.5513582E1,2.7382545E0,1.1490337E0,3.9123886E0,3.920434E0,3.8172066E0,6.582277E0,1.5804502E0,2.4466175E1,1.0474067E0,1.2266061E0,1.5116484E0],"tree_param":{"num_deleted":"0","num_feature":"11","num_nodes":"25","size_leaf_vector":"1"}},{"base_weights":[-1.1255078E-2,2.427385E-1,-1.5694231E-1,-6.5237775E-2,3.843402E-1,-4.775556E-1,9.373571E-2,2.6154858E-1,-3.8261604E-1,-4.065093E-2,4.5955917E-1,-7.1002054E-1,-3.3024613E-2,-3.1394535E-1,2.0966473E-1,5.234985E-2,-1.8782686E-2,-5.5357352E-2,2.9171153E-3,2.0506302E-2,-2.5267292E-2,7.519723E-3,4.7553156E-2,-2.2393558E-2,-7.071064E-2,-3.9991565E-2,3.507312E-2,-5.1503796E-2,2.4769321E-2,2.3549337E-2,-2.7352849E-2],"categories":[],"categories_nodes":[],"categories_segments":[],"categories_sizes":[],"default_left":[1,1,0,1,0,0,0,0,0,1,0,0,0,0,0,0,0,0,0,0,0,0,0,0,0,0,0,0,0,0,0],"id":42,"left_children":[1,3,5,7,9,11,13,15,17,19,21,23,25,27,29,-1,-1,-1,-1,-1,-1,-1,-1,-1,-1,-1,-1,-1,-1,-1,-1],"loss_changes":[2.1001968E0,9.280468E-1,2.9398246E0,8.651222E-1,4.767487E-1,1.6268528E0,1.0607556E0,7.578969E-1,4.20147E-1,2.6210183E-1,2.7294207E-1,1.6868925E-1,1.309023E0,9.277766E-1,5.332216E-1,0E0,0E0,0E0,0E0,0E0,0E0,0E0,0E0,0E0,0E0,0E0,0E0,0E0,0E0,0E0,0E0],"parents":[2147483647,0,0,1,1,2,2,3,3,4,4,5,5,6,6,7,7,8,8,9,9,10,10,11,11,12,12,13,13,14,14],"right_children":[2,4,6,8,10,12,14,16,18,20,22,24,26,28,30,-1,-1,-1,-1,-1,-1,-1,-1,-1,-1,-1,-1,-1,-1,-1,-1],"split_conditions":[1.2561032E2,8.524731E1,3.1376953E0,2.92563E0,1.347856E2,3.0301785E0,6.890869E-1,3.377306E2,2.792181E2,5.0202553E1,7.380371E-1,2.574165E2,2.1318153E2,3.3699884E2,7.018668E2,5.234985E-2,-1.8782686E-2,-5.5357352E-2,2.9171153E-3,2.0506302E-2,-2.5267292E-2,7.519723E-3,4.7553156E-2,-2.2393558E-2,-7.071064E-2,-3.9991565E-2,3.507312E-2,-5.1503796E-2,2.4769321E-2,2.3549337E-2,-2.7352849E-2],"split_indices":[0,0,6,10,1,10,7,2,2,5,7,2,1,0,0,0,0,0,0,0,0,0,0,0,0,0,0,0,0,0,0],"split_type":[0,0,0,0,0,0,0,0,0,0,0,0,0,0,0,0,0,0,0,0,0,0,0,0,0,0,0,0,0,0,0],"sum_hessian":[5.4727005E1,1.9705662E1,3.5021343E1,6.376467E0,1.3329194E1,1.4969953E1,2.0051392E1,3.2283392E0,3.1481283E0,2.0734816E0,1.12557125E1,9.437454E0,5.532499E0,4.06127E0,1.5990122E1,1.7798067E0,1.4485323E0,1.7089107E0,1.4392174E0,1.002929E0,1.0705526E0,2.0836887E0,9.172024E0,1.934305E0,7.503149E0,2.7781312E0,2.7543674E0,2.8432958E0,1.2179742E0,1.4965557E1,1.0245647E0],"tree_param":{"num_deleted":"0","num_feature":"11","num_nodes":"31","size_leaf_vector":"1"}},{"base_weights":[-4.0398557E-2,-5.857939E-2,1.3319352E-2,-1.0279373E-1,3.099718E-1,1.4425173E-1,-3.7759933E-1,4.3139002E-1,-3.0800846E-1,-5.179371E-3,4.044493E-2,-1.3394429E-2,-5.730396E-2,1.7089367E-2,5.1327772E-2,9.1873517E-4,-4.2538505E-2],"categories":[],"categories_nodes":[],"categories_segments":[],"categories_sizes":[],"default_left":[0,0,0,0,0,0,0,0,0,0,0,0,0,0,0,0,0],"id":43,"left_children":[1,-1,3,5,7,9,11,13,15,-1,-1,-1,-1,-1,-1,-1,-1],"loss_changes":[1.8153696E0,0E0,1.8098179E0,2.6239324E0,1.2410593E0,1.2976717E0,9.8371315E-1,3.198204E-1,1.6245598E-1,0E0,0E0,0E0,0E0,0E0,0E0,0E0,0E0],"parents":[2147483647,0,0,2,2,3,3,4,4,5,5,6,6,7,7,8,8],"right_children":[2,-1,4,6,8,10,12,14,16,-1,-1,-1,-1,-1,-1,-1,-1],"split_conditions":[8.625897E1,-5.857939E-2,2.539483E2,2.8715228E2,8.4969006E2,2.175181E2,2.4130907E2,2.3000052E2,2.55256E2,-5.179371E-3,4.044493E-2,-1.3394429E-2,-5.730396E-2,1.7089367E-2,5.1327772E-2,9.1873517E-4,-4.2538505E-2],"split_indices":[1,0,3,2,2,1,0,5,0,0,0,0,0,0,0,0,0],"split_type":[0,0,0,0,0,0,0,0,0,0,0,0,0,0,0,0,0],"sum_hessian":[5.4092583E1,3.4757168E0,5.0616863E1,3.6847736E1,1.3769128E1,1.965411E1,1.7193626E1,1.1760424E1,2.0087037E0,1.2318643E1,7.335468E0,9.967545E0,7.226083E0,5.1587896E0,6.601634E0,1.0047455E0,1.0039583E0],"tree_param":{"num_deleted":"0","num_feature":"11","num_nodes":"17","size_leaf_vector":"1"}},{"base_weights":[-1.924606E-2,7.014931E-2,-5.751702E-2,6.011688E-2,-3.0293167E-1,-3.154321E-1,1.4878704E-1,-1.02707885E-1,-6.4719774E-2,-4.16619E-2,1.3490846E-2,2.305047E-2,-1.46059925E-2,1.386163E-2,-3.5520006E-2],"categories":[],"categories_nodes":[],"categories_segments":[],"categories_sizes":[],"default_left":[0,0,1,0,0,1,0,0,0,0,0,0,0,0,0],"id":44,"left_children":[1,-1,3,5,7,9,11,13,-1,-1,-1,-1,-1,-1,-1],"loss_changes":[1.663106E0,0E0,1.5036237E0,1.2329457E0,1.3291744E0,5.5824655E-1,1.0262482E0,1.0003083E0,0E0,0E0,0E0,0E0,0E0,0E0,0E0],"parents":[2147483647,0,0,2,2,3,3,4,4,5,5,6,6,7,7],"right_children":[2,-1,4,6,8,10,12,14,-1,-1,-1,-1,-1,-1,-1],"split_conditions":[8.657308E-1,7.014931E-2,5.385837E1,6.9506836E-1,2.1895972E2,3.3699884E2,3.302442E2,3.6022278E2,-6.4719774E-2,-4.16619E-2,1.3490846E-2,2.305047E-2,-1.46059925E-2,1.386163E-2,-3.5520006E-2],"split_indices":[8,0,5,7,0,0,0,2,0,0,0,0,0,0,0],"split_type":[0,0,0,0,0,0,0,0,0,0,0,0,0,0,0],"sum_hessian":[5.1943016E1,1.4896202E0,5.0453396E1,3.461603E1,1.5837363E1,6.123503E0,2.8492529E1,1.1534753E1,4.3026104E0,4.653776E0,1.4697272E0,2.131498E1,7.1775494E0,6.3891206E0,5.1456323E0],"tree_param":{"num_deleted":"0","num_feature":"11","num_nodes":"15","size_leaf_vector":"1"}},{"base_weights":[-4.154473E-5,5.2457463E-2,-6.376663E-2,1.804385E-1,-2.2212982E-1,-6.1701436E-2,2.9117203E-1,2.5486536E-2,-6.43465E-1,1.5460793E-2,-2.722427E-2,-2.2017665E-2,3.086E-2,-1.60202E-2,2.9357392E-2,-1.5670327E-2,-6.3204475E-2],"categories":[],"categories_nodes":[],"categories_segments":[],"categories_sizes":[],"default_left":[1,1,0,0,0,0,0,0,0,0,0,0,0,0,0,0,0],"id":45,"left_children":[1,3,-1,5,7,9,11,13,15,-1,-1,-1,-1,-1,-1,-1,-1],"loss_changes":[2.0199292E0,1.8169143E0,0E0,9.57474E-1,1.7401648E0,7.165409E-1,7.549951E-1,7.536996E-1,4.757905E-2,0E0,0E0,0E0,0E0,0E0,0E0,0E0,0E0],"parents":[2147483647,0,0,1,1,3,3,4,4,5,5,6,6,7,7,8,8],"right_children":[2,4,-1,6,8,10,12,14,16,-1,-1,-1,-1,-1,-1,-1,-1],"split_conditions":[7.828783E-1,2.1308594E0,-6.376663E-2,1.9401193E2,1.4530988E2,2.5442464E2,1.0239984E2,2.1194563E2,1E0,1.5460793E-2,-2.722427E-2,-2.2017665E-2,3.086E-2,-1.60202E-2,2.9357392E-2,-1.5670327E-2,-6.3204475E-2],"split_indices":[8,6,0,3,0,2,1,1,4,0,0,0,0,0,0,0,0],"split_type":[0,0,0,0,0,0,0,0,0,0,0,0,0,0,0,0,0],"sum_hessian":[5.23082E1,4.9561584E1,2.746619E0,3.4039265E1,1.552232E1,1.0820649E1,2.3218615E1,1.0368386E1,5.1539335E0,5.639119E0,5.1815295E0,1.7154355E0,2.150318E1,6.427166E0,3.9412205E0,1.0148655E0,4.139068E0],"tree_param":{"num_deleted":"0","num_feature":"11","num_nodes":"17","size_leaf_vector":"1"}},{"base_weights":[-1.184337E-2,2.9354587E-2,-5.8907658E-2,-3.4139654E-1,9.848943E-2,1.8317288E-1,-5.7902205E-1,4.0401027E-2,4.6865043E-1,4.5086026E-2,-2.2528037E-2,8.6029386E-4,-6.559434E-2,-3.7540928E-2,7.0601297E-3,5.9176035E-2,-1.2776998E-2],"categories":[],"categories_nodes":[],"categories_segments":[],"categories_sizes":[],"default_left":[1,0,0,0,0,1,0,0,1,0,0,0,0,0,0,0,0],"id":46,"left_children":[1,3,-1,5,7,9,11,13,15,-1,-1,-1,-1,-1,-1,-1,-1],"loss_changes":[1.4055963E0,1.3194153E0,0E0,1.1167223E0,9.0685767E-1,5.7825303E-1,5.2016807E-1,6.9956154E-1,7.559645E-1,0E0,0E0,0E0,0E0,0E0,0E0,0E0,0E0],"parents":[2147483647,0,0,1,1,3,3,4,4,5,5,6,6,7,7,8,8],"right_children":[2,4,-1,6,8,10,12,14,16,-1,-1,-1,-1,-1,-1,-1,-1],"split_conditions":[1.0088737E0,1.2520979E2,-5.8907658E-2,1.2561032E2,3.295523E2,4.7209564E1,1E0,7.5617874E1,2.9245813E2,4.5086026E-2,-2.2528037E-2,8.6029386E-4,-6.559434E-2,-3.7540928E-2,7.0601297E-3,5.9176035E-2,-1.2776998E-2],"split_indices":[8,1,0,0,3,5,4,0,1,0,0,0,0,0,0,0,0],"split_type":[0,0,0,0,0,0,0,0,0,0,0,0,0,0,0,0,0],"sum_hessian":[5.136108E1,4.9163864E1,2.1972144E0,7.1079206E0,4.2055943E1,2.287441E0,4.8204794E0,3.731011E1,4.745835E0,1.230053E0,1.0573881E0,1.167916E0,3.6525633E0,2.0993745E0,3.5210735E1,3.566068E0,1.179767E0],"tree_param":{"num_deleted":"0","num_feature":"11","num_nodes":"17","size_leaf_vector":"1"}},{"base_weights":[-3.8041208E-2,6.341429E-2,-3.0102324E-1,-5.3948574E-2,2.4369615E-1,-9.135269E-3,-6.124929E-1,-4.860887E-1,2.7232768E-2,2.4646916E-3,4.3591192E-1,-1.722396E-1,3.6920223E-2,-9.322708E-3,-6.3790455E-2,-6.5744594E-2,9.084642E-3,-2.2302026E-2,1.2984982E-2,3.178225E-2,-1.4572563E-2,-4.8444397E-3,4.5752253E-2,-3.0266348E-2,1.00920675E-2],"categories":[],"categories_nodes":[],"categories_segments":[],"categories_sizes":[],"default_left":[1,1,0,0,0,0,0,0,0,0,0,0,0,0,0,0,0,0,0,0,0,0,0,0,0],"id":47,"left_children":[1,3,5,7,9,11,13,15,17,19,21,23,-1,-1,-1,-1,-1,-1,-1,-1,-1,-1,-1,-1,-1],"loss_changes":[1.4136528E0,8.2865965E-1,1.3331065E0,8.6095804E-1,7.1202856E-1,6.600225E-1,2.749083E-1,6.2963986E-1,7.210888E-1,5.0828123E-1,3.3083642E-1,3.5998368E-1,0E0,0E0,0E0,0E0,0E0,0E0,0E0,0E0,0E0,0E0,0E0,0E0,0E0],"parents":[2147483647,0,0,1,1,2,2,3,3,4,4,5,5,6,6,7,7,8,8,9,9,10,10,11,11],"right_children":[2,4,6,8,10,12,14,16,18,20,22,24,-1,-1,-1,-1,-1,-1,-1,-1,-1,-1,-1,-1,-1],"split_conditions":[6.440206E1,2.175181E2,1.3033487E2,2.0084518E2,3.0437043E0,2.5105316E2,1E0,1.7714879E2,1.9239189E2,1.5438423E2,6.710205E-1,9.9108887E-1,3.6920223E-2,-9.322708E-3,-6.3790455E-2,-6.5744594E-2,9.084642E-3,-2.2302026E-2,1.2984982E-2,3.178225E-2,-1.4572563E-2,-4.8444397E-3,4.5752253E-2,-3.0266348E-2,1.00920675E-2],"split_indices":[5,1,0,2,10,5,4,1,3,0,7,7,0,0,0,0,0,0,0,0,0,0,0,0,0],"split_type":[0,0,0,0,0,0,0,0,0,0,0,0,0,0,0,0,0,0,0,0,0,0,0,0,0],"sum_hessian":[5.1268093E1,3.7543213E1,1.3724882E1,2.3164171E1,1.437904E1,7.616527E0,6.108355E0,2.874595E0,2.0289577E1,6.825649E0,7.553391E0,5.907979E0,1.708548E0,1.3021346E0,4.8062205E0,1.8570338E0,1.017561E0,5.7234397E0,1.4566137E1,1.8119673E0,5.013682E0,1.0064927E0,6.546898E0,3.6308146E0,2.2771645E0],"tree_param":{"num_deleted":"0","num_feature":"11","num_nodes":"25","size_leaf_vector":"1"}},{"base_weights":[-4.9668614E-2,-4.4791794E-1,3.3658348E-2,6.6015297E-3,-5.933955E-1,-2.0508592E-1,1.3820668E-1,-6.6118136E-2,-2.0155723E-1,-3.0460128E-1,1.9425589E-1,2.2690934E-1,-1.8177228E-1,3.3649786E-3,-3.023859E-2,-3.8956333E-2,1.2667673E-2,-9.699363E-3,3.7305012E-2,-1.2366215E-2,2.769369E-2,2.91004E-3,-5.46798E-2],"categories":[],"categories_nodes":[],"categories_segments":[],"categories_sizes":[],"default_left":[1,0,0,0,0,0,0,0,0,0,0,0,0,0,0,0,0,0,0,0,0,0,0],"id":48,"left_children":[1,3,5,-1,7,9,11,-1,13,15,17,19,21,-1,-1,-1,-1,-1,-1,-1,-1,-1,-1],"loss_changes":[1.7307799E0,7.2721565E-1,1.11875E0,0E0,2.48137E-1,6.0388964E-1,9.205144E-1,0E0,1.1775386E-1,7.0986176E-1,2.6717457E-1,7.693343E-1,6.832172E-1,0E0,0E0,0E0,0E0,0E0,0E0,0E0,0E0,0E0,0E0],"parents":[2147483647,0,0,1,1,2,2,4,4,5,5,6,6,8,8,9,9,10,10,11,11,12,12],"right_children":[2,4,6,-1,8,10,12,-1,14,16,18,20,22,-1,-1,-1,-1,-1,-1,-1,-1,-1,-1],"split_conditions":[1.2123711E2,1E0,1.9338153E2,6.6015297E-3,5.347589E3,3.7464307E2,3.4184634E2,-6.6118136E-2,2.8854609E0,2.4007167E2,3.0080738E0,9.550544E1,6.4848816E2,3.3649786E-3,-3.023859E-2,-3.8956333E-2,1.2667673E-2,-9.699363E-3,3.7305012E-2,-1.2366215E-2,2.769369E-2,2.91004E-3,-5.46798E-2],"split_indices":[1,4,3,0,5,0,0,0,10,1,10,0,2,0,0,0,0,0,0,0,0,0,0],"split_type":[0,0,0,0,0,0,0,0,0,0,0,0,0,0,0,0,0,0,0,0,0,0,0],"sum_hessian":[5.0701324E1,8.015753E0,4.2685574E1,1.857138E0,6.1586146E0,1.2706851E1,2.9978722E1,3.883731E0,2.2748837E0,1.0361918E1,2.3449326E0,2.3699696E1,6.2790265E0,1.0789329E0,1.1959507E0,8.0669775E0,2.2949414E0,1.2042246E0,1.1407079E0,4.1749034E0,1.9524792E1,4.792936E0,1.4860909E0],"tree_param":{"num_deleted":"0","num_feature":"11","num_nodes":"23","size_leaf_vector":"1"}},{"base_weights":[-3.4160193E-2,-1.8337789E-1,1.2908375E-1,-5.7862658E-2,-4.3100303E-1,1.7972846E-1,-3.456714E-2,5.4409873E-2,-4.6540397E-1,-5.35858E-2,-6.093798E-1,-2.834704E-1,2.4685052E-1,1.7066078E-2,-2.0384338E-2,-6.848692E-2,1.6759995E-2,1.4074769E-2,-2.9350242E-2,-6.720577E-2,-1.2971887E-2,-4.9335236E-4,-4.074718E-2,8.769912E-3,3.9925627E-2],"categories":[],"categories_nodes":[],"categories_segments":[],"categories_sizes":[],"default_left":[1,1,0,1,0,0,0,0,0,0,1,0,0,0,0,0,0,0,0,0,0,0,0,0,0],"id":49,"left_children":[1,3,5,7,9,11,-1,13,15,17,19,21,23,-1,-1,-1,-1,-1,-1,-1,-1,-1,-1,-1,-1],"loss_changes":[1.283243E0,8.2754874E-1,7.2605133E-1,9.110193E-1,5.780345E-1,8.065515E-1,0E0,6.5337354E-1,9.67084E-1,2.8033313E-1,2.7983665E-1,1.6052431E-1,5.8081555E-1,0E0,0E0,0E0,0E0,0E0,0E0,0E0,0E0,0E0,0E0,0E0,0E0],"parents":[2147483647,0,0,1,1,2,2,3,3,4,4,5,5,7,7,8,8,9,9,10,10,11,11,12,12],"right_children":[2,4,6,8,10,12,-1,14,16,18,20,22,24,-1,-1,-1,-1,-1,-1,-1,-1,-1,-1,-1,-1],"split_conditions":[1.9743936E2,5.306943E1,8.9568787E2,3.0873163E0,1.11869354E2,9.550544E1,-3.456714E-2,2.7839575E2,2.1984755E2,2E0,1.6403966E2,2.5101318E0,2.7138965E2,1.7066078E-2,-2.0384338E-2,-6.848692E-2,1.6759995E-2,1.4074769E-2,-2.9350242E-2,-6.720577E-2,-1.2971887E-2,-4.9335236E-4,-4.074718E-2,8.769912E-3,3.9925627E-2],"split_indices":[1,5,2,10,0,0,0,0,3,4,1,6,1,0,0,0,0,0,0,0,0,0,0,0,0],"split_type":[0,0,0,0,0,0,0,0,0,0,0,0,0,0,0,0,0,0,0,0,0,0,0,0,0],"sum_hessian":[5.0708927E1,2.6428177E1,2.4280752E1,1.8357082E1,8.071094E0,2.2691101E1,1.5896503E0,1.5071551E1,3.2855313E0,3.0076945E0,5.0633993E0,2.464027E0,2.0227074E1,1.0393541E1,4.67801E0,2.1448739E0,1.1406575E0,1.9395282E0,1.0681661E0,3.4421782E0,1.6212212E0,1.3232845E0,1.1407424E0,1.2347072E1,7.8800025E0],"tree_param":{"num_deleted":"0","num_feature":"11","num_nodes":"25","size_leaf_vector":"1"}},{"base_weights":[-3.9592464E-2,6.048608E-2,-7.141755E-2,-2.5815538E-1,6.1686657E-2,-4.764949E-1,-3.7421193E-2,-4.2980257E-2,1.1524022E-1,5.387195E-3,-5.7568967E-2,-1.3275602E-2,3.7258875E-2,-2.7771661E-2,1.5246434E-2],"categories":[],"categories_nodes":[],"categories_segments":[],"categories_sizes":[],"default_left":[0,0,0,0,0,0,0,0,0,0,0,0,0,0,0],"id":50,"left_children":[1,-1,3,5,7,9,11,-1,13,-1,-1,-1,-1,-1,-1],"loss_changes":[1.2194368E0,0E0,1.2689505E0,1.0025645E0,9.2832E-1,9.622879E-1,6.381872E-1,0E0,7.0223594E-1,0E0,0E0,0E0,0E0,0E0,0E0],"parents":[2147483647,0,0,2,2,3,3,4,4,5,5,6,6,8,8],"right_children":[2,-1,4,6,8,10,12,-1,14,-1,-1,-1,-1,-1,-1],"split_conditions":[7.828783E-1,6.048608E-2,2.9501429E0,2.8147766E2,1.27288994E2,1.0587098E2,3.1352805E2,-4.2980257E-2,8.524731E1,5.387195E-3,-5.7568967E-2,-1.3275602E-2,3.7258875E-2,-2.7771661E-2,1.5246434E-2],"split_indices":[8,0,10,5,1,0,3,0,0,0,0,0,0,0,0],"split_type":[0,0,0,0,0,0,0,0,0,0,0,0,0,0,0],"sum_hessian":[5.0722282E1,1.3100445E0,4.9412235E1,2.0172226E1,2.9240011E1,9.5586195E0,1.06136055E1,1.9262902E0,2.731372E1,2.3772104E0,7.1814094E0,9.07396E0,1.5396456E0,2.562932E0,2.475079E1],"tree_param":{"num_deleted":"0","num_feature":"11","num_nodes":"15","size_leaf_vector":"1"}},{"base_weights":[-2.299258E-2,1.2623803E-2,-4.7796205E-2,1.4205582E-1,-1.2360353E-1,-2.3789531E-1,2.7350545E-1,-5.1486903E-1,5.484371E-2,1.51836695E-2,-3.540805E-2,-3.4409337E-2,2.9811462E-2,8.235346E-3,-6.0923286E-2,-1.3873441E-2,1.5600778E-2],"categories":[],"categories_nodes":[],"categories_segments":[],"categories_sizes":[],"default_left":[1,1,0,0,0,0,0,0,0,0,0,0,0,0,0,0,0],"id":51,"left_children":[1,3,-1,5,7,9,11,13,15,-1,-1,-1,-1,-1,-1,-1,-1],"loss_changes":[9.364537E-1,8.813626E-1,0E0,1.3429904E0,1.7320799E0,5.1609844E-1,8.640367E-1,8.225179E-1,4.6415854E-1,0E0,0E0,0E0,0E0,0E0,0E0,0E0,0E0],"parents":[2147483647,0,0,1,1,3,3,4,4,5,5,6,6,7,7,8,8],"right_children":[2,4,-1,6,8,10,12,14,16,-1,-1,-1,-1,-1,-1,-1,-1],"split_conditions":[7.993938E-1,1.6315799E2,-4.7796205E-2,8.033447E-1,4.3425183E2,2.1853027E0,8.840424E1,1E0,1E0,1.51836695E-2,-3.540805E-2,-3.4409337E-2,2.9811462E-2,8.235346E-3,-6.0923286E-2,-1.3873441E-2,1.5600778E-2],"split_indices":[8,0,0,7,5,6,1,4,4,0,0,0,0,0,0,0,0],"split_type":[0,0,0,0,0,0,0,0,0,0,0,0,0,0,0,0,0],"sum_hessian":[5.0379185E1,4.7990204E1,2.3889813E0,2.4586935E1,2.340327E1,6.1116405E0,1.8475294E1,6.739935E0,1.6663336E1,1.6674924E0,4.444148E0,1.0399084E0,1.7435387E1,1.5132185E0,5.2267165E0,5.9205394E0,1.0742796E1],"tree_param":{"num_deleted":"0","num_feature":"11","num_nodes":"17","size_leaf_vector":"1"}},{"base_weights":[-2.6672315E-3,6.882322E-2,-4.2917497E-2,9.505537E-3,-4.9200535E-2,4.75269E-2,-5.1098805E-2,-1.6846092E-2,9.872331E-3],"categories":[],"categories_nodes":[],"categories_segments":[],"categories_sizes":[],"default_left":[0,0,0,1,0,0,0,0,0],"id":52,"left_children":[1,-1,3,5,-1,7,-1,-1,-1],"loss_changes":[1.5888565E0,0E0,1.2943144E0,1.0189853E0,0E0,6.5269274E-1,0E0,0E0,0E0],"parents":[2147483647,0,0,2,2,3,3,5,5],"right_children":[2,-1,4,6,-1,8,-1,-1,-1],"split_conditions":[7.993938E-1,6.882322E-2,4E0,8.1291693E-1,-4.9200535E-2,7.4890137E-1,-5.1098805E-2,-1.6846092E-2,9.872331E-3],"split_indices":[8,0,4,8,0,7,0,0,0],"split_type":[0,0,0,0,0,0,0,0,0],"sum_hessian":[4.9378666E1,1.5639193E0,4.7814747E1,4.4196583E1,3.6181655E0,4.2326458E1,1.870124E0,8.442172E0,3.3884285E1],"tree_param":{"num_deleted":"0","num_feature":"11","num_nodes":"9","size_leaf_vector":"1"}},{"base_weights":[-1.8072704E-2,6.942093E-2,-5.6292634E-2,-1.4830732E-1,2.4378578E-1,-3.1862384E-1,3.1440236E-2,5.4510374E-2,-1.576672E-2,-4.258507E-4,-5.902169E-2,-1.5554503E-2,1.937404E-2,2.043419E-2,-3.1820633E-2],"categories":[],"categories_nodes":[],"categories_segments":[],"categories_sizes":[],"default_left":[0,0,0,0,0,0,0,0,0,0,0,0,0,0,0],"id":53,"left_children":[1,-1,3,5,7,9,11,-1,13,-1,-1,-1,-1,-1,-1],"loss_changes":[1.5945181E0,0E0,1.415835E0,1.1997685E0,1.1464903E0,2.118357E0,7.813761E-1,0E0,7.3836726E-1,0E0,0E0,0E0,0E0,0E0,0E0],"parents":[2147483647,0,0,2,2,3,3,4,4,5,5,6,6,8,8],"right_children":[2,-1,4,6,8,10,12,-1,14,-1,-1,-1,-1,-1,-1],"split_conditions":[7.828783E-1,6.942093E-2,2.7138965E2,3.4102005E2,2.8715228E2,1.2561032E2,2.0754942E2,5.4510374E-2,4.08122E2,-4.258507E-4,-5.902169E-2,-1.5554503E-2,1.937404E-2,2.043419E-2,-3.1820633E-2],"split_indices":[8,0,1,5,2,0,3,0,0,0,0,0,0,0,0],"split_type":[0,0,0,0,0,0,0,0,0,0,0,0,0,0,0],"sum_hessian":[5.0409447E1,1.4420851E0,4.896736E1,3.7862995E1,1.1104366E1,1.9044813E1,1.8818184E1,4.0809374E0,7.0234284E0,1.0388052E1,8.656762E0,8.941852E0,9.876331E0,4.2769465E0,2.746482E0],"tree_param":{"num_deleted":"0","num_feature":"11","num_nodes":"15","size_leaf_vector":"1"}},{"base_weights":[-5.183064E-2,-1.11939594E-1,2.7100015E-1,-3.0732749E-2,-3.2977843E-1,4.9184287E-1,-1.5257916E-1,-3.0670005E-1,3.8565658E-2,1.6997205E-1,-5.3145915E-1,5.7859874E-1,6.515664E-3,-4.4391032E-2,1.8149862E-2,-3.57293E-2,8.160114E-3,-8.572936E-3,1.732553E-2,-5.177547E-3,3.257366E-2,-5.673905E-2,-1.3604577E-3,6.2924765E-2,1.669982E-2],"categories":[],"categories_nodes":[],"categories_segments":[],"categories_sizes":[],"default_left":[0,1,0,0,0,0,1,0,1,1,0,0,0,0,0,0,0,0,0,0,0,0,0,0,0],"id":54,"left_children":[1,3,5,7,9,11,13,15,17,19,21,23,-1,-1,-1,-1,-1,-1,-1,-1,-1,-1,-1,-1,-1],"loss_changes":[9.9933815E-1,7.47087E-1,8.356146E-1,6.2923E-1,1.2515447E0,1.6120136E-1,5.2781206E-1,2.7248985E-1,5.682134E-1,1.9857317E-1,4.2234683E-1,8.263433E-2,0E0,0E0,0E0,0E0,0E0,0E0,0E0,0E0,0E0,0E0,0E0,0E0,0E0],"parents":[2147483647,0,0,1,1,2,2,3,3,4,4,5,5,6,6,7,7,8,8,9,9,10,10,11,11],"right_children":[2,4,6,8,10,12,14,16,18,20,22,24,-1,-1,-1,-1,-1,-1,-1,-1,-1,-1,-1,-1,-1],"split_conditions":[3.0274036E2,6.440206E1,6.2525916E2,6.9506836E-1,1E0,2.841536E2,2.8417566E0,4.2797516E2,1.997136E2,3.053942E0,2.6525244E2,1.679493E2,6.515664E-3,-4.4391032E-2,1.8149862E-2,-3.57293E-2,8.160114E-3,-8.572936E-3,1.732553E-2,-5.177547E-3,3.257366E-2,-5.673905E-2,-1.3604577E-3,6.2924765E-2,1.669982E-2],"split_indices":[3,5,2,7,4,1,10,2,1,10,5,0,0,0,0,0,0,0,0,0,0,0,0,0,0],"split_type":[0,0,0,0,0,0,0,0,0,0,0,0,0,0,0,0,0,0,0,0,0,0,0,0,0],"sum_hessian":[4.8935654E1,4.180508E1,7.1305733E0,3.1283989E1,1.0521092E1,4.5810037E0,2.5495696E0,5.59143E0,2.5692558E1,3.0703087E0,7.4507837E0,3.4814813E0,1.0995225E0,1.0997012E0,1.4498684E0,4.5569253E0,1.0345047E0,1.3948407E1,1.1744151E1,1.7255558E0,1.3447529E0,6.0668964E0,1.3838869E0,2.068222E0,1.4132593E0],"tree_param":{"num_deleted":"0","num_feature":"11","num_nodes":"25","size_leaf_vector":"1"}},{"base_weights":[-3.0867176E-2,-1.2536284E-1,2.1082933E-1,4.17568E-2,-3.176425E-1,3.1946257E-1,-3.303449E-2,-8.9503966E-2,4.3761483E-1,-6.271005E-2,-4.541696E-1,4.1371635E-1,-3.0851956E-2,-2.2538532E-2,2.489537E-2,1.8438965E-2,4.789787E-2,1.5224157E-2,-2.4076762E-2,-5.0609443E-2,-1.1517806E-2,4.4748455E-2,2.6815662E-3,3.1521317E-2,-2.8328588E-2],"categories":[],"categories_nodes":[],"categories_segments":[],"categories_sizes":[],"default_left":[0,0,0,1,0,0,0,0,0,1,0,0,1,0,0,0,0,0,0,0,0,0,0,0,0],"id":55,"left_children":[1,3,5,7,9,11,-1,13,15,17,19,21,23,-1,-1,-1,-1,-1,-1,-1,-1,-1,-1,-1,-1],"loss_changes":[1.1590804E0,1.179079E0,1.015727E0,1.0936463E0,5.62732E-1,4.2820287E-1,0E0,1.0161059E0,5.9452057E-3,3.8168254E-1,3.1265903E-1,3.0519938E-1,4.995419E-1,0E0,0E0,0E0,0E0,0E0,0E0,0E0,0E0,0E0,0E0,0E0,0E0],"parents":[2147483647,0,0,1,1,2,2,3,3,4,4,5,5,7,7,8,8,9,9,10,10,11,11,12,12],"right_children":[2,4,6,8,10,12,-1,14,16,18,20,22,24,-1,-1,-1,-1,-1,-1,-1,-1,-1,-1,-1,-1],"split_conditions":[2.539483E2,2.8715228E2,8.4969006E2,2.4175093E2,1.3797333E2,9.9731445E-1,-3.303449E-2,9.9572754E-1,2.870653E2,6.0139603E1,9.963379E-1,2.841536E2,1.2890436E2,-2.2538532E-2,2.489537E-2,1.8438965E-2,4.789787E-2,1.5224157E-2,-2.4076762E-2,-5.0609443E-2,-1.1517806E-2,4.4748455E-2,2.6815662E-3,3.1521317E-2,-2.8328588E-2],"split_indices":[3,2,2,1,0,7,0,7,1,5,7,1,0,0,0,0,0,0,0,0,0,0,0,0,0],"split_type":[0,0,0,0,0,0,0,0,0,0,0,0,0,0,0,0,0,0,0,0,0,0,0,0,0],"sum_hessian":[4.859222E1,3.528013E1,1.3312089E1,1.9293789E1,1.59863405E1,1.1582013E1,1.7300756E0,1.5070522E1,4.2232676E0,6.0844235E0,9.9019165E0,8.983873E0,2.5981398E0,1.0688492E1,4.3820305E0,2.1352525E0,2.0880148E0,2.9353514E0,3.149072E0,6.8926024E0,3.0093143E0,7.1368103E0,1.8470634E0,1.0094925E0,1.5886472E0],"tree_param":{"num_deleted":"0","num_feature":"11","num_nodes":"25","size_leaf_vector":"1"}},{"base_weights":[-4.9744975E-3,5.807327E-2,-3.393627E-2,-8.1459284E-2,4.2770535E-1,-1.4469297E-1,2.09777E-1,-7.923008E-3,6.0134107E-1,-6.17377E-3,-3.1616956E-2,3.0271836E-2,-2.8422488E-2,6.809297E-2,1.1059469E-2],"categories":[],"categories_nodes":[],"categories_segments":[],"categories_sizes":[],"default_left":[0,0,0,0,0,1,1,0,1,0,0,0,0,0,0],"id":56,"left_children":[1,-1,3,5,7,9,11,-1,13,-1,-1,-1,-1,-1,-1],"loss_changes":[9.4819725E-1,0E0,1.0887794E0,8.479575E-1,4.6879786E-1,5.5868614E-1,6.602596E-1,0E0,1.7457378E-1,0E0,0E0,0E0,0E0,0E0,0E0],"parents":[2147483647,0,0,2,2,3,3,4,4,5,5,6,6,8,8],"right_children":[2,-1,4,6,8,10,12,-1,14,-1,-1,-1,-1,-1,-1],"split_conditions":[7.828783E-1,5.807327E-2,3.5986377E2,2.954356E2,2.818785E0,2.4397583E0,5.658591E2,-7.923008E-3,2.1105905E2,-6.17377E-3,-3.1616956E-2,3.0271836E-2,-2.8422488E-2,6.809297E-2,1.1059469E-2],"split_indices":[8,0,3,1,10,6,0,0,0,0,0,0,0,0,0],"split_type":[0,0,0,0,0,0,0,0,0,0,0,0,0,0,0],"sum_hessian":[4.818779E1,1.1473981E0,4.704039E1,4.339654E1,3.6438484E0,3.6068474E1,7.3280687E0,1.0419657E0,2.6018827E0,2.733332E1,8.735153E0,6.1959305E0,1.1321381E0,1.525569E0,1.0763139E0],"tree_param":{"num_deleted":"0","num_feature":"11","num_nodes":"15","size_leaf_vector":"1"}},{"base_weights":[8.2105445E-3,2.2678204E-1,-1.3666481E-1,3.4749642E-1,-1.3625793E-2,1.6396008E-2,-4.5733935E-1,-2.0436006E-2,4.1378185E-1,-4.2479452E-1,